#include "handrecognation_coefficient.hpp"
using namespace dl;

namespace handrecognation_coefficient
{
    const static __attribute__((aligned(16))) int16_t sequential_2_conv2d_2_biasadd_filter_element[] = {
        -12198,    -34,   9205,  -2371,  20110,   3758,  17756,  23497, -10128,   3472, -15307,   4268,   3972,   4546,  -9022,  -9780,   1753, -12947, -17346, -17605, -22162,  22243, -15894, -12894,     17, -19375,  -8416,  16942, -17046,   4098, -22870,  11829, -21105,   3475,   3169, -22174,  15340,   7478,  10474,      5,  -9204, -17300,   1118,   2107,   4350, -22884,  -9347,   9873, -11964,  12737,   7499, -10572,   -260,   6902, -23040,     45,  10712,  -2892,   9749,  -7879,  10290, -13550,   8717,   5516,  15385,   7988,  -9696,   6609, -20923,  -2448, -14728,  -7295, -10225, -19112,  19355,  -2660,   -834, -14031,  24988,  16235,   7417,    982,  -2196,  -8762,  -3522, -12251,  -7563, -18813,   4169,  14905,  12455,  18186, -19905,  -8006, -17690,  -7655,  12024,  -3445, -13713,   1517,  17810,  11734,  -5331,  -8539, -21962,  -9245,  16429,  -5511, -11085,  20492,  -7862, -13139,   9513,  -6686,   8391, -17243, -18802, -16457,   2526,  -8744,   5305,  11289,   8025,  17788,  -2958, -17524,  14439, -12658,  -8115,   2780, -20166,   4515,  14327,  -8713,  10883, -10856,  10596,  12166, -15570,  10637, -15753,   3478, -19633,   1535, -14678, -18311,  -5406,  16458,  11144,  -2794,   7191, -14848,  15062,  -2922, -15837, -17987,   8061,  17302,  -2655,  -1910,   8732,   3938, -16399,  15450,  12598,   1657, -14434,   2840, -20124, -10179, -15743,   8536,   3625,  -5280,  13426, -12770,   1397,   6640,  -4911,   7606, -14155, -17479, -18805,  13210,   5085,   9938, -12591,  16684,   7145,  15263, -19282,  19003,   1277,  -9606, -12850,  -5190, -15089,  14346,  -7856, -11154};

    const static Filter<int16_t> sequential_2_conv2d_2_biasadd_filter(sequential_2_conv2d_2_biasadd_filter_element, -17, {5, 5, 1, 8}, {1, 1});
    const Filter<int16_t> *get_sequential_2_conv2d_2_biasadd_filter()
    {
    	return &sequential_2_conv2d_2_biasadd_filter;
    }

    const static __attribute__((aligned(16))) int16_t sequential_2_conv2d_2_biasadd_bias_element[] = {
            41,     -6,      2,     46,     15,      2,     -3,     -2};

    const static Bias<int16_t> sequential_2_conv2d_2_biasadd_bias(sequential_2_conv2d_2_biasadd_bias_element, -8, {8,});
    const Bias<int16_t> *get_sequential_2_conv2d_2_biasadd_bias()
    {
    	return &sequential_2_conv2d_2_biasadd_bias;
    }

    const static Activation<int16_t> sequential_2_conv2d_2_biasadd_activation(ReLU);
    const Activation<int16_t> *get_sequential_2_conv2d_2_biasadd_activation()
    {
    	return &sequential_2_conv2d_2_biasadd_activation;
    }

    const static __attribute__((aligned(16))) int16_t fused_gemm_0_filter_element[] = {
          4044,   2038,  -3972,  -1323,    387,   4927,  -1218,  -2382,  -5155,  -3957,   4518,  -4275,   4017,   1177,    249,   4169,   1460,  -5075,  -3479,   2824,  -5187,    -35,   1567,  -2602,  -2182,   3139,   5218,  -4228,   -333,  -5802,  -4940,  -5913,    491,  -3222,  -5493,    711,   5234,  -4734,  -3377,    -58,   5180,  -4733,  -6464,  -5520,   4421,   6249,   2381,  -4992,  -5081,  -4686,   1596,   1708,   2368,    297,  -1416,   2583,   4631,  -1317,  -4779,   6306,  -5149,   5798,   4713,  -2438,  -1416,  -3009,   7321,   2782,  -9791,  -2123,   2170,  -3507,  -2327,  -1774,  -3229,  11700,   -874,   3326,  -3004,  -3921,   3996,  -4131,  -3543,  18504,    906,   6358,   4920,   4381,  10039,   2643,  -5266,   3477,   9811,   8922,  -6014,    968, -10060,   2148,  -4515,   3217,   9433,  -5984,  -6802,   4675,  -6097,   4005,   3613,   1797,    -36,   -337,  -3857,  -4698,   1291,  -4550,  -1262,   2064,  -3821,  -3293,  -5494,   5321,   4148,   3196,  -3462,   8247,  -4356,   4461,  -2490,  -3310,   5967,   1603,  -3916,   6950,   4206,   5433,   3677,  -2554,   5709,    306,   3869,   1533,  -3366,  -4671,   1327,  -4136,  -4547,   -705,  -4218,   4857,   7722,   1309,  -7102,    506,   -221,   2943,   2093,  11185,  -3389,  -3378,  -6140,    794,   3513,  -1854,  -2958,   4540,    345,  -5349,   2481,  -5999,  -2016,   2656,   2961,  -1288,   4465,   1203,  -2387,   -340,   -552,   6250,   3069,   7300,   5227,   -679,   4318,  -5635,   2607,  -2886,   7078,  -2835,  -2355,   7143,  -2529,   2156,   -594,   2417,   3080,   6781,   4246,  -1702,   1858,   4711,   3228,  -1152,   3817,    888,  -2664,  -1629,   -114,   2221,   2585,   4450,   1156,    468,   6348,   3904,  -1908,   4548,   6418,  -1903,   2632,   9869,     65,  -3223,  -2981,   7387,   -322,   3291,   4541,   2203,  10552,   8227,   4737,   6320,  11706,   4626,  10561,   4155,   6469,   7514,   2869,  -4639,    971,   2901,   7238,   1376,   7406,   1173,    157,  -4180,  -2913,   4237,  -2072,  -1930,   3684,   -709,  -1298,    930,  -3386,   3291,    971,    -81,  -1791,  -1925,  -3541,  -6095,    780,  -2402,   3188,   5559,  -4851,   4216,   3453,  -6811,  -2427,   4079,   -790,   7424,    957,  -4302,  -7434,  -5564,   2245,   4810,  -1646,   5736,   1527,  -1722,   -863,  -6329,  -4924,   2322,  -5368,  -7660,   2863,   6122,   4772,   4631,  -2530,  -6304,  -1761,   3545,   2408,    953,   1003,    186,   1428,   3062,  -1759,  16043,  -3538,   7858,   5612,   4356,   3311,   5451,   5599,   3689,   -274,   1115,   4803,   1353,  -1657,    104,   4371,  -7108,  10599,   3446,  -6748,   1645,    -25,    123,   3373,   2130,   -409,   5903,  -4358,  -5089,   5501,   1939,   5265,   -968,  -5806,   4292,   -376,  -4910,   4086,   5032,   8341,  -2022,   6176,  -4026,    198,  -1779,  -8331,   5909,   8332,  11465,   3215,   -365,  -1334,    586,   3755,   -241,   8895,   1281,  -2340,   -804,   6427,   2841,   6451,   8670,   1045,   3719,   7720,    727,   1377,   1389,    741,   9545,   4865,   4722,   3985,   1263,    219,    905,   5175,   -769,   4628,   7117,   2725,   2439,  -3214,   3094,   8777,   2562,  -3517,    882,   9229,   6652,   3943,  -1503,   3675,    -93,  -4780,   3882,   -644,  -3931,   -718,    922,   -644,  -1644,  -7196,  -4554,   -368,   6048,  -4280,  -3934,   5345,   3277,   4997,  -2752,  -4498,   -614,  -4856,  -3190,   1832,  -3450,   6441,  10507,    187,   2387,  -4053,   2394,  -5130,   2575,   3713,   3126,  -3945,  -3500,  -1335,     89,   5096,   1957,   2277,   4494,    140,  -2400,   2588,   -319,  -1812,   3348,   5817,  -2023,   7566,   1231,   3649,  -3551,   4795,  -2270,   1890,  13371,   3472,   -444,   1639,   2756,   1436,  -1294,   -425,  -4551,  -2781,  -2821,   1095,    556,  -3639,   3531,    319,   2032,   6531,  -4082,   5719,  -3330,   4764,  -4760,   2564,   5140,  -2010,  -3843,   1502,  -1783,  -3566,   6850,   -839,  -1654,     36,  -3145,    694,   4069,  -2749,  -1853,   5214,   2247,    140,  -1331,  -2147,   5911,  -6085,   6686,   -333,   5797,   6394,   1039,  -4263,   -629,
         -3632,   7252,    118,  -2392,   7774,   1608,   6804,   1371,  -1743,    886,   -388,  -4063,   7105,   4507,   7299,  -3109, -10477,   4264,   8870,  -3019,   6345,   1945,  -1835,   5469,  -7485,   5417,  -5080,   5338,   5433,  -5892,  -2563,   3256,   -716,  -2344,   3046,   3109,  -2957,  -3091,  -7495,   3713,  -2535,   2147,  -2956,   1989,   5037,  -1847,  -2432,    850,  -2075,  -3239,   4768,   -479,  -3611,  -1322,   -706,  -5884,  -4501,  -4445,   4982,  -1759,  -4697,    985,   1087,   1838,  -1160,   2607,   1650,   -205,   2814,   2563,  -4366,  -6548,  -1451,   -632,  -5190,  11172,   2545,   5462,  -5046,  -6352,   6036,  -2371,   2861,   3659,   7769,   7054,   -610,   3634,   4856,   3277,  -1710,   4430,   -607,   5701,   4268,  -2875,   7563,  -4373,  -8201,    652,   7547,  -1213,  -1537,  -4925,   8473,   -196,   6327,  -5021,   3081,    683,  -2908,  -6785,   3666,  -1911,  -3089,   7598,  -1205,   3206,   3987,   6103,   5200,    937,   1993,    337,  -2017,   3579,  -2796,    823,   8325,   2248,  -5389,   9267,   3980,   -927,   1240,   5639,    664,   -717,  -1603,   9528,    611,   1870,   5691,   2858,   3378,   6311,   6602,  -2475,    860,  -3419,  -4487,   2026,   2579,   4276,   7293,   -343,  -3792,   6046,  -3018,   6611,  -6541,   5520,   7657,    -28,  -3936,   1460,   2378,   3375, -10140,  -5520,   4815,  -3903,  -4619,  -7759,   1560,   -635,   3321,  -5280,  -4370,   2961,   1945,  -1692,   4330,   1365,  -4314,  -3845,  -5651,   4126,  -2684,   4360,  -3905,  -6200,  -5936,   -580,  -5518,  -2773,  -1943,   -995,  -3657,   2033,   1908,  -6561,  -7872,   3520,  -3626,  -2793,   2626,  -3323,   2837,   4474,   1004,   1154,  -5959,  -4072,   4155,  -5206,   -101,   7195,   2209,  -5112,  -1133,   5076,   5162,  -3910,  -1344,   1005,    734,   7647,  -4347,    892,    936,  -3114,   4969,  -4214,  -2468,   8232,  -1370,   1958,   6080,   2197,   3911,  -5418,   4095,   5637,  -5391,   4417,  -4932,  -5903,   4856,    565,   4893,    680,   5547,  -3128,   1467,  -3850,   4513,   5765,   5807,   4203,     63,   2822,  -2011,   1079,  11076,   1193,   7259,   2715,  -4963,   6202,   7565,   7986,   4132,  -2367,   8627,  15143,  -1056,    900,   1562,    540,   9988,   5537,   3299,   7834,  -2160,  -2993,   -742,   3610,   2037,   1440,   6482,   1587,   4968,   3717,  -3012,   4672,   7142,  -5013,   6963,  -4924,   -501,    418,   4245,   2300,  -1535,   3284,   1168,  -2332,    153,  -6204,  -3169,   1624,  -3489,  -1727,  -8008,  -5185,  -4370,   2024,   2872,  -5529,   -750,   2010,  -4061,   2917,  -3915,  -1456,     83,  -6109,  -2751,  -4607,   2338,  -3729,     41,   1480,    899,  -5375,   -805,  -3099,   6072,  -3650, -10189,  -7453,   -929,   -325,  -5762,  -3401,   2478,  -5782,   2871,    383,   2376,  -3132,  -5907,   1409,   6177,   -747,  -5983,  -2834,   1712,   3952,   2414,   2615,   3987,  -3222,   3895,  -6947,   5535,   2704,   4860,  -5377,  -3828,  -6321,  -4998,   3786,  -4153,  -1678,   1975,  -2381,   -861,   -558,  -4566,  -1430,   4794,   3721,   2752,   2726,   1334,   3757,   5280,    940,   6461,   5949,  -4010,    196,  -5156,  -2193,  -1309,  -2731,  -4672,    374,  14568,   2244,   4628,   4022,  -3267,   6740,  -3394,   6734,   1179,   3274,  10400,  -1166,  -3800,   -531,  -2612,  -2672,   9995,   5234,   6242,  -3548,  -4848,   -195,   5527,  -1800,  -4499,   3082,   2725,    -84,  -4245,   -612,  -1637,   1373,   2801,  -1875,   1562,  -4820,   3633,   3285,   4910,    595,   6891,   -165,   4439,   -645,  -5109,   -619,   2585,     82,  -6029,   3176,   5804,  -2678,   4431,   4041,  -3870,   5266,  -1981,   2744,  -1343,  -4511,  -8486,  -3852,  -1363,  -3432,  -2364,   3458,     94,  -6638,   4647,   -647,  -6442,    457,   2389,  -7599,   4254,   6567,  -2209,   1021,   2660,   -757,  -8337,  -7274,  -1297,  -3541,  -7117,  -2673,   4091,    218,  -5224,  -3082,  -2040,  -5868,  -1211,  -5119,  -3482,  -4015,   7326,   4133,  -3531,   9013,   3008,   -994,  -6201,  -5736,  -1740,  -1247,   6592,   -769,   1449,  -1074,  -1097,  -4250,
         -2557,  -1359,   2764,  -1689,  -2824,  -2803,   1234,   4509,  -5314,   1131,   -738,   4855,  -3169,  -4115,  -1095,  -2959,  -1327,  -6630,   2733,  -2238,  -4085,  -1907,  -4492,  -4891,  -1145,   5929,  -2789,  -1391,   1737,    139,  -3697,  -2991,   3223,   5630,  -6201,   6604,     35,  -3497,  -4702,    189,   5149,   -169,  -3450,   4286,  -8331,   5905,   1030,   6469,  -1869,   -101,  -2225,   7784,   1072,  -2612,  -6161,   2353,  -3988,   1347,   3779,  -3114,   7134,   8324,   4472,    194,    334,  -1251,  -3669,  -1509,   2767,   1464,   2585,   4375,  -2751,    990,  -1560,   3330,   4791,   -981,    217,   -127,   3688,   -671,   3153,   4596,   1635,  -2981,   6636,   -645,    -54,   -684,  -7123,   8720,  -1939,   1222,  -6332,   4723,  -1408,  -5744,   -109,  -1911,  -4180,   1243,  -1857,  -4068,   2585,   1438,    361,  -3769,   6214,  -6240,  -6103,   4087,   4601,   3485,   4935,  -3563,   5385,  -5600,   1248,  -2689,  -5492,    226,  -6187,  -3562,   1252,    419,  -5523,  -3406,   5067,  -5298,    921,  -1089,   1305,  -2624,  -5263,  -2498,   3470,   3912,   1574,   2001,  -7191,  -6062,  -7084,   2265,  -3104,   -686,  -2152,   7005,  -1173,  -5175,  -3128,   1445,   5444,  -6581,  -6515,   5882,     85,   4983,  -3762,  -3274,  10809,  -5369,   4829,   1523,   -782,   1904,  -4443,  -3800,  -3515,   6232,   2981,   6146,  -6953,   4382,   4835,  -2771,   2538,   2406,  -2853,  -2098,  -8165,   2687,  -5362,  -5559,   7188,  -4469,   5562,   1887,  -3558,  -3751,   -242,   4011,   1529,    756,   6331,  -5873,  -1566,   2760,  -1480,   -872,   1475,   -362,   4221,   2729,   2398,   4691,   5062,  -1937,  -2186,  -3070,   6822,   9770,   7584,   4865,   5748,   1719,   6742,  -1787,  -1999,   1910,   -798,   4744,   3385,   5087,  -9141,   -205,  -5073,    375,   3112,   2612,    385,   6526,  -5116,    301,   -939,   -422,   -561,   1576,   -854,  -5962,  -4061,   3084,   2285,   5052,  -2201,  -1881,   1953,  -1954,  -5251,   -227,  -6099,    -86,   5261,  -4661,  -3103,  -1497,  -5985,  -3175,  -3221,   -431,   1915,  -4137,   2539,   5024,  -6664,    775,  -6111,   2895,  -4604,  -1537,  -2817,  -3898,  -1014,   3993,   6612,  -5423,  -2088,   1963,    945,   4954,   4079,   6430,  -3533,  -2606, -11829,  -2236,  -3860,  -1003,   1459,   1856,   2843,   1735,  -7172,   4900,  -2010,  -1344,   6654,   -238,   1242,    227,  -5694,   -446,  -4957,  -1410,   2567,  -1463,    982,   7127,   -320,   1580,  -5905,  -6837,    841,   4553,  -5257,  -4195,  -2434,   5916,  -2752,  -1154,   2472,   4374,   3013,  -1044,     95,    980,  -7427,   4465,   3971,  -1921,  -1931,  -2253,   -678,     55,    686,    861,  -4079,  -3479,   5611,  -2756,   3374,   4326,   1669,   2077,  -5490,   6881,   5867,  -3795,   5612,   1505,  -6579,   4973,  -4178,   7286,   1481,   4051,   3403,   2653,  -1630,   2231,  -1508,    634,    670,   3865,   2080,    415,   4887,   4232,  -5437,   2683,   3178,   8832,   1967,   4149,  -1341,   7405,  -3036,   2951,   -606,   4959,   1341,   1578,   5250,  -1054,  -6256,    145,   2199,   2162,   2122,  -9867,  -1013,  -3471,   3154,   -607,   5618,    837,  -5210,  -8022,  -3784,  -6803,  -3586,   1896,  -2670,    804,   1746,   3156,  -1135,  -5141,  -2964,  -5926,   3211,   3793,  -8880,   -648,   1599,  -3343,  -4514,   8307,  -4454,   8320,   6081,   5887,   3038,    602,  -3176,   2992,   3106,  -9085,   4639,   1753,   3632,  -1373,   5697,   4168,  -1944,   2077,  -3814,   3922,   3139,   -889,   4083,  -4493,  -6103,   1251,  -7218,   -358,   2983,  -2870,     26,   2601,   2715,   -485,   4270,  -6279,  -4827,  -5635,    210,  -1516,   -439,  -2046,   5146,   -225,   6508,  -2986,  -2990,   1691,  -3378,  -4041,  -3003,   3220,   2535,   3260,  -5189,   2169,  -2413,  -5276,  -3638,  -2342,    978,  -3592,  -1521,    -21,     20,    498,   4323,    342,  -4277,  -3416,   2324,   3030,   1337,  -4250,  -1673,  -4518,   2490,  -2617,   1743,  -2207,    570,  -4662,   2066,   1120,   2243,  -1750,   1447,    981,   2849,  -6318,    539,  -2547,   -193,     -4,
         -3606,   1320,  -1094,   1755,    389,   5526,  -2304,   6700,  -2114,   5472,   3508,  -3741,   2381,    176,   3779,   2787,  -2046,  -1134,   5155,   6319,  -2167,  -5114,  -2811,   3454,  -2508,   3610,   6300,   1347,  -6795,   3690,   -539,  -2305,  -7794,   4013,   2426,   9402,  -5890,  -6580,  -6913,   4766,  -5908,  -5412,   4677,  -2247,  -6331,   6173,  -2351,  -7288,   5771,  -3348,   4655,   1491,   1941,  -1669,  -6044,  -3602,  -1840,  -1782,  -5980,  -6157,  -1641,    -16,   -700,  -5868,   3157,  -6159,  -3095,  -5914,   2580,  -7304,   2862,  -1405,  -2268,   1570,  -4677,  -1972,  -9533,  -6676,   3619,  -3676,  -3963,   3841,   3733,   -284,    282,  -4486,  -4879,  -2114,  -2425,    557,  -5821,   2687,  -6356,  -2529,  -4757,   5086,  -4537,  -5957,    143,  -3558,  -5527,   3495,  -4017,  -6099,  -6597,    955,   1452,   -353,  -4237,  -5913,  -7810,  -4764,  -6867,    229,  -1983,  -3755,   4461,   5039,  -2905,   2790,  -2071,   2304,   2284,  -6408,  -6733,  -2754,  -2108,  -1234,   3675,   -245,   3239,  -2973,   3220,    991,  -2918,   1077,   1010,  -2109,    110,    -69,   6268,   1456,  -4338,   -264,   4874,  -4998,   3791,   1264,   1555,  -3665,    223,  -6757,    434,  -3026,   5555,   7561,   3543,   2552,   2856,  -4129,   2376,   4896,   7234,   6755,  -3762,   1754,  -4126,  -5712,   -369,   3818,   2058,   -332,   4096,  -5380,   4210,  -4669,   2478,   -696,   3981,   1875,  -1674,  -2457,  -7024,   -868,   1085,   4446,  -6437,   4635,  -5632,   3794,  -6769,  -3233,  -4367,    538,  -1675, -11171,  -4910,   4522,  -5013,  -5962,  -5716,  -1618,  -4976,   3503,  -4325,   4405,  -3066,  -4300,  -6367,  -7667,   1284,  -7041,  -1777,   3265,  -3211,   2354,   2071,  -4377,  -9331,  -7390,  -9203,  -3212,  -1965,   2274,   4945,  -5378,    718,  -2802,  -7545,  -3933,  -4351,  -5803,  -7422,   2762,  -3004,   6209,  -6360,   1615,  -7387,    -19,     70,   3431,  -6604,   2356,  -4406,   -814,   1218,   4749,   2969,  -2696,  -5643,  -2320,   1395,  -5991,  -1559,   2345,   7018,   3916,   3739,   5397,   3760,  -6130,  -2395,   1332,   1908,   2439,    396,  -5501,    537,   5557,  -4136,  -1301,   5860,  -2131,   1909,   -395,  -4450,   1993,   2618,    154,  -4296,  -1262,   -627,    995,    796,  -1008,  -2370,   5406,   4558,   2810,    255,   3093,    455,    969,  -2035,  -1311,   3376,  -5134,   6284,   4334,   3100,   6101,   5657,   1329,  -4635,   3189,  -2492,  -1201,  -8454,  -3161,   3079,  -6604,   2202,   1043,  -5526,  -5029,  -5092,   3167,  -5292,    833,  -7049,  -4283,  -4795,   2741,  -5003,    664,   -828,  -4938,   4586,   3127,   3334,  -1405,  -4776,  -4189,   5297,  -3909,   2822,   5863,  -2642,    -79,  -3833,   -944,  -2180,   6742,   3742,  -7492,  -3403,  -4819,  -3888,  -1266,  -5361,  -1622,  -5058,   1258,  -1548,   -883,  -4102,    827,    275,  -1322,   -458,    917,    -56,  -1327,   3058,  -5888,  -3803,    174,  -4485,    583,  -6191,  -3800,   1784,  -6930,  -3132,  -3594,  -6169,  -4695,   2592,   2021,   -998,   2399,   3819,  -2765,   5651,  -3874,   3563,  -5285,   -990,   3120,  -3482,  -4432,   -962,   2713,    117,   6027,  -2613,      8,  -7873,   1088,   5435,   2701,  -8142,  -1565,   1807,   4164,   4496,  -1804,   7220,   3028,   4479,   -278,  -4272,  -2171,   -541,  -6056,  -7285,  -1933,   6850,  -3949,  -5027,   4605,   2995,   6435,  -5975,  -1592,  -2872,  -3950,   6891,  -1587,  -1364,   1792, -10282,  -4543,  -1623,  -2788,   5993,   6228,  -5467,  -1607,  -2532,   2907,  -1798,   2417,    514,   1017,  -3033,  -3996,  -5433,   3315,  -3592,   7999,  -3937,   4336,  -4508,   5049,  -1388,     34,    206,  -4447,  -7697,   4317,   2311,  -7387,   3573,  -1521,   3306,   -510,  -7804,  -2586,  -1847,   4513,   5793,    967,  -1794,  -1398,   3200,  -3412,   4894,  -4124,   1843,   3635,  -6413,   2521,  -4973,  -2349,   1706,  -5595,   3677,   2606,    797,  -3032,  -2249,  -5527,  -1017,    921,   2729,    779,    261,   3407,   2594,   -874,  -6400,    130,  -6514,    281,  -4994,  -7959,  -1314,   1884,  -5264,  -5707,
         11301,    213,   -716,   2440,  -5578,    660,    201,   1403,   1278,   4296,   4934,  -2112,   2115,  -1624,   2736,    -31,  -4886,  -3021,  -5131,  -2146,  -1230,   2177,   4930,   1756,   1325,  -5832,  -7746,  -1509,  -2416,  -3498,  -6514,  -3462,   8309,   1273,   -221,   8797,  -3584,   1283,  -4472,   2778,   5473,    631,    832,   4642,   1322,   -642,   5263,   -572,   7336,   2322,  -1549,  -1719,  -4847,   1877,  -3487,   -241,   3776,   4055,   7409,  -4016,   5421,   1119,    148,   1896, -10456,  -3125,  -1670, -10572,  -2474,  -5340,   1631,   4264,    424,   1062,  -1529,   1436,   1674,   6383,   6498,   -142,  -6046,   -328,   6139,  -7706,  -1780,   5815,  -2570,   5854,   1524,   -467,   3554,  -5454,   2469,   3124,    550,    527,   2680,  -2602,   6478,   1777,   6003,  -2700,      3,  -3366,   1190,   4987,    592,   9769,   3623,   -704,   1367,   4033,   5105,   -400,   -618,  -4612,    198,  -2130,   -731,  -3593,    710,   2752,   2586, -11130,   7962,   2119,  -1531,  -7160,  -3869,  -3754,   5494,  -4225,   3962,  -3952,    194,   -847,  -2187,  -8485,   3436,  -5954,  -8719,   3495,   4436,  -6191,  -1245,    917,   2407,  -7573,   -346,  -3797,  -4023,   -254,  -4529,  -5931,    616,  -1006,  -5448,   3558,  -4206,   -256,  -6640,   2583,  -4894,   1908,  -6023,  -1850,  -5698,   2250,    838,    132,   -405,   7369,  -1815,   4852,   -816,  -4708,   -531,   4281,   4783,   7230,  -1136,   4499,    410,   4429,   -417,  -4534,   6108,   3951,  -2888,   3654,   3711,  -1128,    803,   7050,  -1708,   4132,  -2210,   3417,  -3990,  -1467,   1603,    538,   -536,   3694,  -2182,    123,  -6436,  -5109,   3064,    294,   3531,  -7313,   -997,  -1531,   2923,   4513,   6176,   4905,  -1900,   1267,   7947,    374,    957,  -7153,   3831,   4457,   1105,  -2711,   9070,  -5667,   6073,   4604,  -3142,  -7136,  -4068,   -907,  -1891,   1374,   1245,  -3361,   1711,  -5038,  -5379,  -5017,   4192,   1359,  -6277,    118,   1560,   1779,  -3587,  12645,   1750,  -4964,   3612,  -4792,   5017,   1320,  -4816,  -2135,   4092,  -4733,  -6573,   -674,  -5962,  -1600,   3023,  -4087,   4407,  -4390,  -3091,   2726,  -2456,   -741,  -4417,  -3418,    -24,   -254,  -1830,   -788,   -865,   -954,  -2522,  -5047,  -3791,  -1020,   4137,  -5337,  -9420,    534,   3083,    554,  -1112,   3698,   1716,  -6289,   3311,   1024,  -1031,   3958,  -1451,   2484,    719,    744,   6487,  -2823,  -4579,   3012,   -630,  -3113,   2994,   2816,  -2589,  -1711,   2100,   1343,   2868,   4530,  -1989,    724,  -3612,   3233,  -5026,  -2641,  13093,  -3337,  -3402,  -5711,  -8366,   5175,  -4199,    468,   2353,    739,   2959,     36,  -5250,    531,   3298,   -178,  -2252,  -5439,   3304,  -2606,   1387,  -5844,  -6203,    814,  -3346,    135,    111,   3304,    282,     77,  -5272,   3757,   2314,   -672,   4379,  -3599,   3503,  -3278,   5476,   1571,   5194,   1562,    828,  -3376,   6872,   4541,    741,   -821,   1631,  -1332,  -4713,  -4482,  -7376,   5456,  -1522,  -7049,   9937,   3919,  -2299,  -2055,  -4439,   5044,   -254,   -730,  -2920,   5749,  -5841,  -5520,  -5346,   3695,  -1230,   8020,   3199,   -483,   2076,  -5165,   7460,  -3242,    467,   7062,  -3370,   4736,   2132,   4301,  -4158,   -656,   2327,  -1395,   3566,  -5910,  -5903,   1896,  -1004,  -9187,  -3693,   4682,   9074,   1022,  -6252,  -6807,   6128,   2759,    827,  -8237,   2697,   3291,  -3923,  -4724,  -3482,   3972,   9517,  -1872,   5706,   6064,  -4543,   6029,   8261,    588,  -3725,   4658,  -4241,   3347,  -1651,    745,   3457,  -7435,   2855,  -5240,   2699,   1489,  -1120,   1696,   2706,  -6837,  -3325,  -1992,  -6508,  -5116,  -3216,  -6538,   3614,  -6053,    467,    876,   7750,   2481,   3363,  -1256,   2389,   5533,    154,   3895,  -9718,  -4138,   2187,   2590,   3460,   3464,  -2930,   -781,   3117,   -215,  -3834,   4503,   5462,   2901,  -6775,  -1430,  -6706,   -326,   1360,   2568,   5157,   2733,   3000,   4200,   -408,   5201,   1194,  -1624,   4397,  -2726,  -3232,   7260,  -1274,   4456,    887,   2395,
          1652,  -3643,  -1648,   6570,   7371,   4146,   1809,   3967,   2691,   4391,     63,  -4437,  -4533,    931,    921,  -5422,    890,  -4134,    782,   4290,   -940,  -3113,   1497,   2742,   1341,   -284,   1540,    129,  -2649,  -2588,   5465,  -1504,   2614,  -2844,   -760,  -1675,  -2804,   5031,  -2608,   7682,   -843,   2745,  -4065,   2551,   6250,  -1895,   -757,  -1161,  -2980,  -1273,   4229,  -9090,   1842,  -4625,   3053,   5633,   4203,   2966,   2679,  -3592,  -2584,   5879,  -3450,   1723,    342,    953,    962,  10497,   2100,  -3095,   2496,   1716,  -2786,  -4366,   3647,   4113,   6862,   3719,   2364,   4970,   2789,   4137,  -6326,  -3154,   6326,   6461,   7626,  -5430,   5558,  -1989,  -2291,   -748,   3822,   5656,    518,  -4897,   -330,   2260,  -1522,  -6325,  -8456,   -333,   3258,   5427,  -3438,  -5669,  -3572,  -6537,  -2917,  -2535,    857,  -1275,   2200,  -4010,    572,  -5838,  -3555,  -3634,   1885,   4708,   7297,  -4859,   2257,  -2622,  -8731,      4,   4563,   -794,   4705,   6500,  -1403,  -7031,  -2608,  -4936,  -2945,   7505,   2093,   3223,  -1348,  -5512,  -1376,  -1600,   1603,    830,  -5174,  -4489,   6808,  -3070,   7987,   3290,   -804,   4728,  -4848,  -4431,  -2597,   8801,  -5504,  -4031,  -1011,   1007,   1206,    701,  -3253,  -2907,   3985,    393,  -4432,   6045,  -3947,   1264,  -1892,  -4947,   4122,  -5405,   5564,  -4209,   5817,  -4308,   3776, -12678,  -3582,  -4184,   5246,  -1703,    250,  -5044,   2097,  -1047,   6106,  -5152,  -5684,  -1898,  -1159,  -5493,  -5090,  -1033,  -4185,   -710,   2475,  -2396,   -930,   4306,   2756,   -310,  -5315,   4074,   1692,   3131,    556,   1016,  -4422,   9824,   1616,  -5421,  -4852,    286,  -2929,   6044,  -2141,   1121,  -3513,   6588,  -2615,  -2689,   2879,  -2091,  -1701,   3005,  -5989,   -425,  -1279,  -2468,   4856,   3441,  -1793,   -288,  -2846,   3754,  -3854,   3081,   1220,  -3502,  -5982,   5165,  -5824,  -1790,  -2386,   1641,   4807,   -196,  -6184,  -5861,     40,  -3992,  -6003,   1749,  -6204,  -5021,  -5474,    -74,  -5458,  -4750,   -787,   4870,   3105,    657,  -2007,  -4601,  -1904,  -1109,   4020,  -5003,  -5836,   -580,   2437,  -2191,    450,  -1549,   -712,  -1576,    105,  -1616,  -5373,  -6932,  -3711,   2920,   4964,    554,  -6734,   1390,  -5419, -14372,  -4921,   3166,    564,   4336,   2318,   2708,   1326,  -3066,  -2011,   2047,    931,   7243,  -6049,   1543,  -3316,   5980,  -4208,   6218,  -2076,  -4941,  -3680,  -3542,   1348,  -5020,  10988,  -5750,   1737,   1637,  -2077,   4744,   -138,    127,   -353,   2078,  -2524,  -1314,  -5639,   3211,   6963,   -262,   1223,   2015,   -148,   7619,  -3181,   4510,   1120,  -5496,    778,  -3430,   1846,  -2280,   1564,  -3065,   3423, -10334,  -2559,   5697,   -871,   4880,  -5740,   1933,   4517,  -6535,   3439,  -5958,   2959,   -657,  -2078,   6736,   1146,    464,  -2718,   4780,   -378,   7352,   4953,    157,  -1143,  -3205,  -1222,   2865,   3621,   4819,   -526,  -1662,   1189,  -3650,  -1733,   -705,   3526,   2087,   3011,  -3315,  -3524,  -7608,  -1271,  -6148,  -2985,    581,    223,  -7021,  -5907,  -9033,   1561,   -251,  -2407,  -2703,   1801,   4059,  -1159,     20,  -5853,  -3431,  -1252,   3619,  -4495,    370,   1376,  -5609,   3337,  -5378,   4079,    219,  -9152,  -4016,  -7026,  -4701,   2893,   -417,   2529,   1262,   2354,   3969,  -2676,    485,   -735,  -6116,   1270,  -5185,  -3484,  -4552,  -2833,  -5719,    871,   5050,  -4016,   5708,  -3701,  -2801,    522,  -5268,    485,   -287,   6325,  -2482,   4013,    824,   6620,  -4242,   1038,  -3609,  -4322,   2360,   -580,   -899,   3085,  -6169,   2068,   3437,   6189,   1405,   -267,   1827,   5700,   5051,   3604,   5108,   1326,   4823,   5647,  -2023,  -3075,  -4382,   2499,   5839,    876,   5059,   5354,   4221,    748,   1634,  -5939,  -2186,   4728,  -3814,   1874,   1007,   2234,   5825,  -5939,  -3399,  -1046,  -4394,   3721,  -3379,   1568,  -9928,  -7083,  -4791,   1241,   4904,  -2901,   -661,   3893,   1126,  -3908,  -3078,   6105,   2889,
          1996,   5553,  -5561,   2030,   2842,   4353,  -1278,   1338,  -7679,  -3593,  -1094,   1897,   3389,  -6485,  -4708,  -4641,    -11,  -5195,  -2077,  -7493,   5048,  -2148,   -971,  -2295,   5253,  -2352,  -5328,  -1490,    465,   3510,  -2633,  -2148,  -7041,  -3213,   4489,   2321,  -1890,  -1149,   3519,   3684,   2603,   1659,  -4177,   7868,   5377,   -217,   4006,  -2484,  -4504,  -1940,   2242,   4147,   7313,   5242,   1309,   1279,  -4612,  -2514,  -3756,   6485,   -953,     56,   5412,   5369,  -3315,   3867,  -2846,    798,   6804,  -1401,   7261,  -3424,   2094,   3675,  -5480,   4326,   1530,  -1148,  -2979,   -325,    202,  -1681,  -5286,    125,   4526,   -461,   2759,   2863,   -905,    493,   1673,  -4271,   2954,  -2354,   4180,   -868,  -5465,  -2147,  -1875,   2450,  -1431,  -3844,   5539,   2133,  -2347,   1413,   6092,   1308,    176,   2070,  -2204,  -4560,   -521,   5549,   1742,   6857,  -2824,  -1286,   -809,  -2831,  -6157,   -499,  -2473,    987,  -5502,  -3138,   1851,   2682,  -7153,   3514,  -3039,   6886,   3728,   1786,  -2102,  -4708,   2625,   1842,   2889,   8570,   -875,    862,  -3504,   3337,    576,   3447,   5244,  -1189,  -6170,  -3330,   2586,   4666, -11223,   5622,   1048,   5923,  -4544,  -4010,  -2137,  -4705,  -5779,   3053,   2144,   -233,   -788,   4523,  -5955,   4674,    364,   2652,  -1955, -10060,   -575,  -2692,   3206,   2694,   3711,   5222,   4197,   -442,   -258,      5,  -1260,   4237,  -2087,  -5095,  -1159,   3683,   6136,  -6006,   3593,   4490,   3270,   4807,   1715,   6005,   5781,   7605,   -614,  -2308,   4141,  -3222,   5667,  -1589,  -1779,   1435,   2164,   4519,   2108,  -3657,  -1072,   -236,   1734,  -4027,   1562,   -686,   1581,   6715,  -4803,   3769,  -2510,   5015,  -4970,   1673,   1282,   7398,   4645,  -5130,    -76,  -1576,   1257,  -4694,  -1709,  -3089,   8326,  -5654,   2496,   2071,  -2913,  -5093,   -181,    677,   2948,    814,   1460,   3982,   5347,   5390,  -3198,    -84,  -2151,    895,  -6751,    215,   1163,    980,  -1679,  -1606,  -6413,  11179,  -1359,  -6575,  -1164,   4264,  -3345,  -1217,   2556,  -1248,   2184,  -1996,   -122,   7585, -11400,   5497,  -5239,    975,   3998,   2030,   2055,   1132,    -31,   1364,  -3954,    969,  -6618,    294,   -441,  -5753,    470,   5858,  -1593,   2760,    469,   2990,  -4634,   5114,  -5854,   5631,   -389,   7528,   3532,  -3625,   3088,   -981,  -6522,  -1994,   6659,   3782,  -2462,   -488,   4778,   2074,   -554,   3737,    144,   3022,  -4702,  -2264,  -2927,   6097,   5615,  -2563,  -2442,  -4056,   -253,  -3309,  -4419,  -2041,   7595,    -44,   5260,  -1927,   3466,  -4174,   4092,    487,   5945,  -2257,  -2651,  -1701,   4530,   3952,  -1457,   3704,  -2823,  -1083,   -497,   5636,   9215,   -945,  -2673,   5783,    452,    675,  -2550,   3206,   8145,   -245,   1999,  -1452,   5160,  -4640,   1772,  -7594,  -1712,    -29,  -3460,    416,  -2550,   2218,   1090,  -5269,   2245,   7100,    251,   -520,   -630,     53,   1448,     34,  -2729,   -811,   1597,   2470,  -4584,  -6442,  -6590,   -924,  -3695,  -2567,   6396,   3663,  -6457,  -3940,  -6815,  -1334,  -4372,  -7159,   5699,  -2114,    795,   1500,   -191,  -5861,  -3350,   3256,   3474,  -3908,   2123,   2342,   1183,   4820,  -3150,  -1210,   2500,   4088,   3564,  -2416,    996,    412,  -1386,    -52,  -1392,  -3055,    910,  -6056,  -3758,   1682,     51,   2710,   4931,  -6293,   3010,  -3662,  -3957,   6199,    104,  -3166,  -6640,  -2443,  -2367,   4149,  -4301,   5180,  -4224,  -2057,  -1622,   2906,   2663,   2614,  -1915,   7626,  -5500,  -2181,  -2016,   2926,  -4567,  -3889,   4312,   1024,   4459,   -520,   5811,   6709,   -196,  -6663,  -2152,  -2856,   4555,  -6085,  -2360,   2368,   5394,  -5238,    699,  -1386,   2485,   1193,   3523,   3422,  -2190,    184,  -3340,   3660,   5550,   -530,  -3787,   4276,   5096,   4996,   5802,  -1737,   6166,   2460,   3355,  -5055,    259,   5568,   2995,   5584,  -1034,   4392,  -3316,  -3831,  -5317,   3188,   -934,   5377,   5617,   4515,  -3297,  -5924,
         -1018,  -2494,  -8096,   2334,  -2547,  -1695,  -4281,  -4077,  -4262,    366,    152,  -2721,   4772,   3424,   2538,  -2700,   6081,    -52,  -6097,   1148,   5222,   3392,   -726,   1903,  -6182,  -2270,  -1010,  -1422,   5036,   3844,  -1556,   5208,   2414,  -2117,   3677,   3767,  -2685,  -5859,   -657,  -1463,  -1566,    662,  -3967,    817,   6085,   4324,    577,  -5949,   2092,   3410,  -5605,   5778,  -1607,   4469,  -3996,  -4788,  -2516,  -4516,   -595,   4901,  -3607,  -3745,  -1171,  -6134,   4701,  -5669,  -5540,   -123,   -325,   2622,  -3364,   1342,   3695,   -320,  -6756,   3677,  -3693,    427,   1575,  -1583,    503,    293,   1063,   3190,  -1096,   -412,  -2653,  -2622,  -8204,   3502,  -5966,    683,   1444,   5553,   6591,  -4243,  -6233,   2556,  -7058,  -8307,  -1990,    240,   3823,   3619,   7676,   2745,   3174,    527,    807,  -8503,   -579,  -2569,   2606,   2920,  -5806,   3544,  -6556,    -94,  -1534,  -5731,   8848,  -4169,   2783,  -5589,  -6001,   3849,   2775,   2717,    318,  -4941,   4768,  -2344,  -2078,  -7897,  -3508,  -5145,   7176,   4259,   2560,   -347,  -7012,  -1632,  -5680,    514,  -6161,   6399,  -6292,   -103,  -6359,  -1596,     80,  -3148,  -4287,   3728,  -3682,  -7170,   4209,  -3592,  -4493,  -2780,   1652,  -3028,   -166,     54,    509,    613,    619,   1564,  -6209,   -818,   5540,   4737,    757,   7276,   2887,   -280,   5769,  -1002,   4606,   1235,   4803,   1282,    601,  -4689,    -30,   2215,  -4518,   4166,   5165,  -5453,   3531,  -3710,   5923,  -6726,  -4960,   2078,   3395,  -5327,  -6495,  -1481,   4542,  -2437,  -2844,   5180,  -1316,  -3234,   5594,  -4426,   3541,  -2897,   4750,   2474,   6351,   4694,   4563,   3846,    832,  -1089,   -933,   3281,   1788,   3921,  -4064,   3677,   -990,  -1172,   5017,   -561,  -4723,   -517,    840,     75,  -7467,   4244,  -6234,  -2570,   4307,   5618,   3723,   4121,    637,  -6721,   1379,   4675,   -112,   3918,   3421,    221,  -4607,  -6075,   3419,  -1277,    687,    830,  -3267,   1259,   4711,   2096,  -6614,  -4569,   3913,   4244,  -1227,   -896,  -2707,  -7287,    269,   -453,  -4441,  -5882,  -3397,  -1361,  -2683,   4031,   3445,  -5302,   1680,   3969,  -4832,  -6596,   4793,  -4518,  -3819, -12060,  -4237,   -708,   3230,   5356,   -778,   2768,   7584,  -8196,   5478,   6032,   5201,   2655,  13275,   6080,  -2935,  -2965,  -4164,   5968,    -15,  -3857,   -116,    358,   4752,  -5556,   4944,  -2684,  -3492,  -3730,    553,   6056,  -4543,   2562,   -474,   3945,   7399,  -4374,   9008,   3668,   3254,  -2446,    470,  -2428,  -1803,  -5452,     19,  -5964,   2268,  -2194,   2590,  -3895,  -4521,   4793,  -2419,   3729,   2858,  -1284,   1264,   1123,  -1642,   1872,   6334,   2238,   3857,   1629,   1195,   -744,  -3233,  -6776,   5500,    190,  -6328,    956,  -3938,  -5806,   4769,   3631,  14265,  -6858,  -8588,   9352,  -1068,  -7142,  -5572,  -2267, -11827,   1124,    817,  -1163,  -2959,   2377,   -859,   4079,   6899,   3839,   1224,   3356,   1740,   4560,   4891,   1201,   -431,   4438,  -2336,   1607,    199,  -5936,   4817,  -3722,   -247,   2229,  -4588,  -6424,   1701,  -4240,  -4528,  -2307,  -4691,   1881,   -299,  -3768,   5642,   3834,    221,  -2115,   2605,  -4439,    934,  -5922,   3567,  -3682,   3757,  -2434,   1090,  -1840,  -1774,    212,    291,    245,   3580,  -3842,   1132,   5555,  -1031,   1299,    796,   2940,   7719,    593,   1436,    450,   4392,   2459,   8834,   2704,   3175,   5658,   1394,   2032,   1806,   4325,   6722,  -1238,  -1257,    559,  -1816,  -1291,   3138,   5608,   -556,   8120,  -1842,   1345,    -43,    -95,   2578,   1412,   8653,   1448,    959,  -1393,   6555,  -5072,  -4160,  -1223,  -3897,   4123,  -1475,   5369,   2819,    962,   1774,   1520,  -1018,    647,   1570,  -3011,   7304,  -5911,   3983,   2519,   6093,   1953,  -5287,  -2333,   8114,  -1355,  -6333,  -4558,   4390,  -5523,   -625,   3973,   4212,   4222,   3026,   -152,   1692,    756,   5605,  -1050,   2561,  -3811,  -1408,   8163,   1505,  -2875,  -1605,    -33,
          6059,  -1314,   -900,   7341,    188,  -3295,   6531,  -3719,   7615,  -3325,  -1508,   6833,    967,   4448,   5816,    819,   1184,   7212,   5909,   -465,   6911,   6543,     40,  -2074,   9566,    705,  -2375,   1639,   8697,   1956,  -2161,   4115,   7863,  -1127,  -2130,   1635,  -1400,   4901,   3440,   3238,   5484,  -2703,  -1800,   5986,   3228,   -462,  -2667,   1562,  -7756,    681,   3794,   3155,   5410,   1743,   -121,   -254,  -2596,   7778,  -1302,  -7920,  -1307,   -804,   4843,   -286,  -4155,   -889,  -2565,  -2275,  -9103,   6591,     94,  -2883,  -1460,  -1220,  -3497,   7420,   1518,   4580,  -1428,   -646,     92,   2126,   4140,   6352,   4203,   7191,  -2380,   2280,   3216,    301,  -1594,   5037,    411,   5499,   4802,   1446,  -2447,   2382,   6249,   2606,   4121,  -2691,   2102,   2388,   3051,    869,  -1782,   6289,   5200,  -4566,   -186,   5367,   9667,     29,  -2015,  -4556,   5888,  -4936,   5535,   5082,   9320,    734,    176,  -2303,   3274,   1480,  -4551,   -969,   1489,   2256,   1949,  -1255,   1449,  -1089,  -2608,  -3658,  -5500,  -5665,   5737,    315,   -315,   2547,    405,  -1094,   -220,  -4353,   2892,   5153,   2455,  -5157,   2836,   3751,   3842,    370,  -2992,   7048,   1132,   4795,   -709,   1838,   2474,   1790,  -4587,   7603,   4335,   7310,   2523,   7451,   -235,   4660,   3479,   1470,  11983,   6126,  -1252,  -1739,   -526,   7703,  -1930,   4135,  -1958,   1623,   1407,   1188,   5282,   6899,   2130,   7581,    159,   6424,  -2913,   2129,    844,  -4124,   1954,   3464,   1777,   5750,   1501,    300,   2213,   1532,  -7916,   6180,   2267,   2188,   6763,    773,   5342,   2270,   2804,  -2060,    -15,    179,   4698,   2463,   1745,   3142,   6547,  -2549,   8607,   4761,  -1927,  -1149,   6986,  -1283,  -2619,   6815,  -4031,  -2760,  -4658,  -4738,   1253,   3095,   5195,   3298,   6489,  -2998,    -16,   2629,   8734,  -3258,  -3168,  -2216,    377,   -261,  -1260,    151,   1315,  -4054,   -173,  -4473,  -4527,  -5675,  -3991,    556,  -1640,  -6638,  -6450,   2637,   2676,   1391,    -96,  -4789,   3935,   2484,  -1985,   3650,  -1131,   -492,   2257,    -41,  -2136,  -5243,   2882,   2090,   -156,   -192,   -345,  -2685,  -3034,     89,   1997,   4977,  -8285,  -6896,    119,  -6239,  -3248,   -118,   5528,   2147,   -337,   4829,   1354,  -2279,  10892,  -2163,   4646,   4101,  -2130,   4422,  -4227,   5201,  -2669,   7689,  -5497,   8460,   8628,  -2449,   2540,   -199,   6672,   3365,  -4299,   5769,   -720,   -676,   1931,  -3618,   -821,    288,   4397,     91,   7690,  -5215,  -2869,    529,    730,   3363,   2476,   5515,   2267,   -395,  -5649,   -619,   5031,   3320,   4883,   4120,   6689,   2724,     38,   2435,   2899,   1431,   2729,  10416,   2159,   2636,   4124,   2310,  11171,  -3748,   1264,   3019,   7220,  -6030,   5823,    722,  -5806,   5805,   1547,   6179,  -2779,   4069,   6867,    120,   2680,  -6263,  -6281,   7275,  -4387,   5805,   1599,  -2982,   8145,  -5090,   1772,   4265,  -3565,   1876,  -4486,  -3320,   8134,  -2078,  -1401,    208,  -4827,   7137,   5767,   5914,   1648,   1788,  -2287,   6770,    671,  -5197,  -4522,   4212,     54,  -5948,  -2186,  -3514,  -5348,  -1805,   4348,  -4609,    369,  -6835,   3591,   1601,  -3663,  -2519,  -1594,    790,  -3441,   -732,   5019,   4248,   5939,    874,   1479,   3685,   6382,  -1737,  -4281,  -6940,   3706,   3768,   2721,  -6187,   7968,  -3410,   5939,   1328,  -2857,   -727,   5750,   4830,  -5238,  -1525,   3706,   7613,   2544,   -693,   1476,   -779,   4560,   7150,   3341,   4083,   6277,   -710,   3893,   5823,   -162,   1998,  -4370,   -335,    -58,  -4702,    407,  -3942,   2458,   6283,  -5988,   4916,   1353,   1641,   7125,  -2362,   1394,   2355,   2182,   -163,   5943,  -2589,  -3996,  -2410,  -1114,    540,   5946,   6813,   4896,   5030,   8120,   4122,    976,   4626,   2866,   4174,   -153,  -1598,   3839,  -5153,   5806,   1673,   -902,   4651,   1663,  -6065,   2138,  -1717,   5151,   1346,   5802,  -4194,   1600,  -3159,   -309,  -3528,
         -1108,  -5505,  -1301,  -2271,  -2948,   2565,   2230,   1750,   6324,   3327,  -4759,   5243,  -3745,   3065,    223,   3782,   8441,   2040,  -4478,   1614, -11035,  -3844,  -1077,   4003,   2577,  -5389,  -3636,   5065,  -2636,   -993,   5028,  -2958, -11342,   1507,    606,  -4564,    985,  -5157,  -5606,  -7693,  -9473,   3793,  -2834,  -3754,   7366,   6216,  -3665,   3730,  -2551,     92,   2601,  -2446,  -6516,   -732,   -328,   4111,   5926,   1258,   -673,    783,   4146,   5369,   3755,  -2237,   4556,   4896,  -2195,   6731,   4230,   5233,   5863,  -4821,   1418,   4447,   4014,   3733,   5764,   -409,   -231,   5389,  -1678,   1094,  -1914,  -3835,   3826,   3803,   2713,   3033,   5976,  -1332,   3224,   4400,   2722,   1653,     22,   -319,   5133,   2870,   3553,   -896,   2224,   1977,   4406,  -2927,   2475,   1455,    232,   6440,  -3628,  -1700,  -2109,   5716,   5802,   -840,  -4027,   8246,   3804,   5056,  -4013,    774,   9589,   4547,   7112,   3848,  -1051,   1618,   7119,   1751,   5128,  -2634,   4596,   2571,   2155,   2804,   2735,   5501,  -3608,  -5031,  -3489,  -2305,    222,  -3389,   5820,    708,   4100,  -6422,  -1951,   5013,   -273,   3924,   3623,  -1512,  12929,  -1241,  -2827,   6827,    119,  -2352,    223,   1358,  -5353,   3972,  -3599,  -5627, -11373,  -5170,  -3364,   4955,   1857,    571,  -3782,  -3718,   3330,  -1312,  -6182,   2064,   3213,  -3509,   3325,   7824,   -413,  -4529,  -1848,   1069,   8847,  -4194,   4177,    757,   1926,   5922,  -3743,   2054,  -3634,  -4927,   2607,  -4789,  -1544,   1891,   -336,    244,   1541,  -5327,   -795,    101,    666,  -5037,    732,  -1248,    169,   5939,  -6262,   5965,  -6281,    780,   1939,  -2004,  -4534,   5833,  -6877,  -5671,  -5106,  -1792,   5362,  -1362,  -1578,   6842,   1184,  -5312,   8880,   2406,  -1137,   4223,  -1582,  -1561,   2537,   4134,  -1117,   5278,  -4860,   -104,  -1493,  -2866,  -2759,   6300,  -3831,  -5257,   2906,   3021,   -771,  -2740,   6513,   8492,   2727,    767,   -422,   -659,   6122,   5882,   -674,   -891,   5135,   3166,    357,   2157,  -4683,  -2926,   2727,   1748,   3172,  -4035,  -3306,  -2205,  -4032,  -3952,   6482,   5946,  -3403,   2707,   6718,   2314,  -1922,   6154,    555,    149,  -7727,   5619,  -2822,   5693,   5675,    294,  -4274,   2492,  -9579,   3748,  -2595,    911,  -1201,  -5168,  -6015,   2118,  -5091,   4868,  -6030,  -1995,   1696,  -3865,  -6904,  -5363,  -8266,  -4036,   1632,  -5353,     92,   -435,  -4032,  -1470,  -2631,  -6948,  -2662,   2617,   2852,   3958,   7066,    212,   3724,   -681,   3880,    546,   2068,   1855,   -627,   9555,    -48,   6140,  -2816,  -5336,  -4095,  -5453,  -3247,  -1533,  -2079,   4931,  -3221,   1214,   2904,   5222,  -4853,  -2409,  -4441,  -4679,   6096,  -3013,   5500,  -2422,  -1549,   2847,  -8944,  -7082,   6599,   3131,   3355,   5830,    632,   8536,  -2804,   7037,  -2509,  -4417,  -1779,   6336,   5875,   6036,  -5874,   4337,   3177,  -3225,   6946,  -2344,   7909,  -3727,   2706,  -1096,   8532,   3675,   3761,   4019,   4306,   1951,   6982,   5648,  -2971,   1131,   2908,   4151,   4688,   1319,   1655,  -1917,    873,  -3051,  -5472,   1797,   7454,   2193,   5180,   -991,  -3960,   5472,   8839,   2565,  -1170,   1392,  -6419,  -6163,   1586,  -2199,   4039,   3556,   3888,  -3111,   3632,   3051,   6077,   -498,  -3637,   5647,  -2783,  -8709,   3674,   3063,    953,   2067,   -468,   2857,   -700,  -3312,  -1947,  -1132,  -4499,  -1532,   3463,   3506,  -2245,   4356,   4666,   3990,   -376,   2115,    964,  -1709,   3401,  -1638,   2678,    419,   1476,   1637,  -4571,   2059,   4584,   4252,   2112,  -2089,   1192,  -4270,    899,    379,   5519,    296,  11431,   3271,   5727,  -3794,    477,  -6198,   1826,  11722,  -3022,    673,    826,   5110,  -1212,  -1611,   5785,   4739,   -361,  -1770,  -3041,  -4694,   6758,  -4224,  -2991,   4886,   6342,  -2531,   -809,  -1927,  -5180,   3761,   5736,   5010,  -1932,  -5307,   4301,  -1679,   9651,  -2795,   7633,   5431,  -4061,   5376,   3363,   5713,
          9269,  -1207,   6197,   4283,   8620,   3284,  -3447,   3146,   3830,  -1383,   2165,  -3535,   1366,   2052,  -1202,   3109,  -2093,  -3280,   8393,   2104,   5233,   3851,  -4588,  -3928,  -1213,  -4939,   3556,   3124,    167,   -909,   6884,   -222,  -1477,  -4146,  -2339,  -5646,   2590,   1650,   3200,   1318,   8257,  -3995,   7371,   8619,   2393,   2926,   1442,   4133,   -305,  -2088,   7009,  -3436,   5175,   1767,   5253,   6076,   1312,   2168,    166,  -4150,   6339,   1905,   4186,    623,  -1962,    871,  -4809, -10124,  -5316,    641,   5583,  -5647,   1111,   3894,   -905,   5326,   5218,   5520,  -4397,   2690,  -4915,   5904,  -5655,   9057,   5058,  -1907,   4884,   3967,  -5672,   5697,  -2511,  -4875,   4868,  -4428,   2624,  -4971,  -1116,  -3476,  -1334,  -1144,   2063,   3629,   -328,   4375,   4279,  -4816,  -3558, -13929,  -3950,  -4075,  -5032,  -3347,   3500,   -642,  -4364,   1183,   3669,   5323,    681,  -3469,  -2966,  -2813,   3873,   3627,   2972,      9,  -2990,   6237,   2024,  -5128,   4115,  -3814,  12446,  -2278,   2441,   6200,  -6162,   3185,  -1983,  -1701,   4672,  -3346,  -3147,   5485,   6955,  -3447,   5436,   1494,   5850,  -4931,  -2603,   -137,  11213,  -2006,  -3657,   7855,   4706,  -5314,  -3401,  -3720,   9310,   3540,   2697, -10719,   6024,   3743,   2699,  -3076,  -7216,  -1740,   6236,  -9585,  -6044,   2063,  -1836,   5919,  -2449,  -1741,   4820,  -2297, -11327,    493,   2915,  -2808,   5791,   2129,   4213,  -1962,  -5873,   2892,  -2078,   4369,    470,   2403,  -3218,  -4456,  -5467,   -599,   5351,   1742,   5368,  -1707,  -2812,    401,  -2916,    877,   -754,  -5668,   3585,  -1822,  -2345,   3759,    692,   5006,   4573,   3539,   4263,  -2819,  -3475,   4441,   -366,   1191,  -2510,     55,  -3680,  -3057,  -4853,   5825,  -5207,   5887,  -3770,   1310,   -641,   4924,  -3967,  -2232,   1029,  -2959,    868,  -2658,  -4443,   -158,  -7382,  -3499,   2397,  -1360,   1740,    856,  -2377,   3174,  -2886,  -4970,  -5455,  -3200,  -3020,   4325,  -5355,   5517,   5268,  -2548,  -5742,  -1683,    718,   2368,  -4736,   3247,    328,    592,    534,    667,   3407,   -526,   3025,  -1287,   2756,   -607,   4369,  -3543,   3507,  -3240,  -5884,  -2203,   -540,  -2005,  -3123,  -1196,   -999,  -2945,   4318,  -4402,   3543,  12330,   6216,   6883,   -754,   2990,   7926,  -2788,  -4399,   8213,   1088,    974,  -2566,     27,   4659,    539,   3998,  -6819,  -5122,   1593,   3379,   1156,   2343,    411,    983,  -3974,   4932,  -4002,  -2185,   4743, -12338,   5777,    442,  -8226,   3710,   1444,   4302,  -5968,  11281,    344,  -4634,  11353,   5831,   5672,  -1010,   5678,   7678,   6211,   3362,   3501,  -4624,   1627,  -2854,   6742,   5305,  -2889,   6027,   3092,   -777,  -1736,  -2008,  -4404,   2149,   5171,  -4855,   2678,   4939,   1705,   1431,  -2337,   -725,  -4837,  -3180,   6814,  -4882,  -5549,   2752,   1226,  -4181,  -2875,  -5711,   1262,   2203,  -7100,  -3917,  -1566,  -1943,  -4321,  -2932,   1893,  -3871,   1803,   2441,      7,   3705,  -5679,   1971,   5380,  -3906,   -151,   1509,  -1253,   2898,   6385,   -132,  -1607,   1274,   1979,  -1596,   -150,   -929,   3023,  -2475,  -8264,   3053,  -1096,    -20,  -5282,   1094,  -7106,  -6765,  -3808,  -9147,   3710,  -3168,    943,  -2292,   4675,  -2406,   2167,    472,   6645,    223,   -733,     46,  -4730,  -2005,   3239,   2399,   -891,   3926,   4819,    -14,  -3617,   5369,  10703,   -338,   2695,   4116,   3695,   1333,   4542,  -3378,   9451,  -4266,  -2985,   1739,  -2047,   1863,   1118,  -3963,  -2723,  -3940,   6590,   5605,   6017,   -994,   7840,   1893,   1497,  -1530,    491,    639,   -456,  -2087,   -378,   5298,   7162,  15405,   1251,   1548,  -5241,   5785,   -247,   3674,  11574,   2921,  -4239,  -1913,  -1939,  -5031,  -3404,   -117,   1163,   9771,  -3252,   1955,   -126,  -2238,    833,   1201, -10258,   2016,   2969,  -3483,   2938,   3536,   2636,    889,   -265,    740,   3457,  -1009,  -2171,  -4822,   -540,   3826,  10688,  -2336,    -58,   -666,   6532,
          1773,   4620,   5215,   6324,  -5297,  -4295,    771,    861,   3828,   -726,  -3068,   8350,  -3155,   6898,  -2408,  -4203,  -3024,   2543,  -5084,   6116,  -1499,  -4221,  -4929,   2941,   6043,  -3745,   5854,   4076,   -904,    669,   5154,   1376,  -1266,   3380,  -1607,  -1634,  -1444,  -5282,  -7578,   4069,  -5803,  -2689,   2076,   2634,   1301,  -1156,  -6729,   1232,  -9453,  -4467,   2220,  -3783,   -763,   4112,  -4332,   4264, -17017,     45,   5586,   1854,   1947,   6338,   5050,  -2226,   -695,   7029,  -3737,    837,  -4617,   2188,   1643,  -2409,  -4839,    346,   7643,    257,    332,  -4315,  -3899,    953,  17005,   3572,  -3570,   7189,   -853,    244,   4994,     22,  18684,   -208,  -1273,  -7478,   1897,   3113,   6049,    811,   4175,  -2487,   1368,   9271,   5092,   1490,  -5264,   -943,  -5201,   -459,  -1312,  -3074,   6282,   3587,   2524,   4166,    927,     44,   1737,  -2387,   -980,  -3721,    331,   6138,   2891,  -3082,   2117,   -597,   7091,  -4061,   2306,   6512,   5026,  -5635,   5181,  -5128,   -479,   4730,  -3375,  -4471,   -294,  -3648,  -5897,   6696,   5296,    164,  -4925,  -6792,   2451,   5244,  -3110,   7834,  -3413,   5926,   6206,  -2502,   2793,   7159,    408,   5448,   5048,   5428,   -840,   4111,   4441,  -5415,  -4428,   7152,   1994,   6159,    632,  -2398,   1138,  -3120,   2939,   1586,  -3735,  -5198,   2208,  -3210,  -6711,  -5568,   2361,  -5032,    904,    526,  -3742,  -2873,   -752,  -4669,  -3194,  -3884,  -1952,  -1577,   4371,   -551,   7656,   6145,   5878,  -4937,   4503,   5138,   2553,  -1147,  -5904,   -929,    461,   4866,   -444,  -4566,   -478,   5253,   2123,  -1603,   2548,   5072,   -280,   3701,  -5667,   1591,    -91,  -4449,   2592,   7114,   1577,  -1825,   -652,   3535,   7907,  -3601,   4586,  10491,  -5648,   1970,   2161,   3112,  10124,  -3610,  -2550,    250,  -3263,    318,  -1689,  -2275,    884,  -3698,   3463,  -2588,  -1978,   2879,   1294,   3227,   5814,     92,  -4175,  -4856,   -446,  -3245,  -4551,   3301,  -3960,  -5654,    427,   4933,   4760,  -1582,   -942,   3476,   5189,   1780,  -2890,     76,    580,   3691,   4173,  -5705,   4072,   1657,  -3864,   2738,   7127,  -3362,   -239,   -299,   -397,  -3864,  -5032,   3197,   1086,   3173,  -2352,   3764,   6629,   6921,   2941,   2087,  -1634,   7057,   6297,   6042,   9632,   2546,   2369,    566,  -4164,   5146,    510,   1855,  -1548,  -2760,    428,   4552,  -3771,  -1619,  -5620,  -2990,   -828,  -5263,   2922,    940,  -3355,  -5840,  -5663,  -2403,  -6384,  -6280,   3923,   3155,   5704,  -2259,  -1217,  -2169,   2330,   5298,  -2535,   -261,  -5004,   2888,  -5641,   4641,    818,     86,   3065,  -2677,   1336,   1273,   2831,    714,  -3428,   4236,  -2827,   6476,  -7210,   5470,   -131,   5154,  -4497,  -1985,   3298,  -2642,   2241,   1340,   -817,  -4797,  -4018,   4375,  -3957,   -154,  -3151,  -7373,    -12,  -5426,   2663,   6947,   5654,  -5889,   2992,   3531,   -996,  -3787,  -1177,   1026,  -5540,  -2775,    -47,    414,   1468,   6876,   3672,  -4687,   2962,  -1671,   3498,   3727,   4105,   6202,  -2002,   4565,  -3862,   2315,   4913,  -5309,  -2530,   2890,  -2526,   1755,  -2894,    804,  -3134,    780,  -2898,   4189,   2612,   3727,  -4529,  -2970,  -5921,  -3354,   4627,  -4949,    327,   2286,   1154,   5638,  -5749,  -3909,  -1540,   3204,   1980,   4542,   4744,   8470,   1341,   2977,   5502,  -1227,  -4300,   4812,  -3932,  -2567,   5169,   7109,  -1765,   7774,   1924,   2740,  -3196,  -2220,   7640,   1206,  -4898,   4463,     22,   3475,   7117,   7212,   1440,  -4151,  -1433,   2977,  -2154,  -2357,  -4288,   3052,   -422,   1239,   2954,  -3928,    717,   5288,   -845,   4737,   -485,    897,   3063,   5165,  -7456,   4881,    346,   2668,   8264,  -3191,   1879,   3449,  -5794,  -4524,   2975,   8449,   3459,   4904,   2419,   4823,    -91,    871,  -1536,   3353,  -3235,   2804,   4136,   2800,  -2469,  -5443,   3965,   6331,   -424,    312,  -5281,  -5482,  -1222,  -3109,   3175,    621,   3913,  -4818,  -2213,  -4574,
          2243,   7053,  -3580,  -7076,    160,   -455,   5467,   3299,  -1601,   2818,  -1433,  -5206,  -5217,  -5040,  -4196,   5266,   2052,  -4674,   1924,  -2618,   2976,   1996,  -4867,  -4918,  -4157,  -4585,  -6549,   4199,  -5651,   -135,  -1691,  -6125,    474,  -1308,   4950,  -8566,   4883,  -6092,  -3845,   5600,  -3871,  -1924,   8171,  -4210,   1120,  -2566,   2797,   1328,   1571,   4253,  -2103,    409,  -4602,  -2467,  -1545,   6781,  -1831,   5973,    -71,   1392,    189,   4469,   3483,   2084,   7271,   4831,   2106,  -2908,   -583,  -1607,   -102,   4468,   8289,  -2964,   2272,  -4885,   3258,  -5810,   4296,    537,   8377,  -2343,  -1617,  -1206,    620,  -5302,  -5356,  -6526,  -2499,  -3949,  -5300,  -2413,  -4716,  -4277,    219,    100,  -1774,    471,   -276,  -1841,   5860,   5364,    702,    415,  -2493,    807,    232,   1870,   4544,   1793,   2538,  -5753,  -7033,   3699,   -961,   3505,   3718,  -4903,   1084,   5672,  -6064,  -2003,  -6451,   3474,  -3005,   1729,  -5645,   5044,  -8781,  -5205,  -3239,  -3219,  -8236,   -359,   5271,  -1904,  -6562,  -2082,   3573,  -1995,  -3582,   1916,   4275,  -1989,  -3111,  -4648,  -3823,   5329,  -9328,  -5817,   4920,  -4494,   5673,  -2007,  -6923,    492,  -7559,   2816,  -3950,   3555,   -289,   5929,   2189,  -2937,  -4025,  -3081,   5583,   2479,  -5854,   1888,    -11,  -7569,   -408,     48,  -2754,  -4836,   2288,  -1345,  -1716,  -6251,  -1701,  -6213,   5950,   5116,   -188,  -5107,   3054,   -313,     24,  -1942,   1914,   2251,   1589,  -1935,  -6136,   2281,  -1283,   1872,   4172,  -1087,   7440,  -5688,  -5316,   7147,  -7097,   4425,    295,   5567,  -3971,    377,  -5545,  -1756,  -3324,   6233,   3365,   4311,   1670,  -5604,   2063,  -4081,   2025,   2067,  -1375,   -874,   -621,   4670,   3973,   4076,   6896,   5413,   5061,   5461,   1234,   2210,  -3557,   4472,  -1478,   4209,    728,   5427,  -9970,   4889,   2226,   4486,   2015,     15,   3586,    738,  -5958,  -4500,  -1186,   2908,   3209,  -3439,    798,   3185,  -1037,  -5684,  -5076,  -5168,  -6368,   5280,   2030,  -6022,  -1299,  -1042,  -5367,    404,  -1947,   -916,   4220,  -1792,   -742,  -4651,  -5935,   2886,  -3882,   3547,  -1039,  -1280,    741,  -4777,  -5690,   4352,  -7881,  -3747,  -4642,   3747,  -2627,  -3039,   3672,   2042,  -7638,  -3397,  -4641,  -3550,  -1000,    823,  -1747,  -4885,  -6425,  -2559,   4257,  -4629,  -4252,   -598,  -5088,   1033,  -4431,     33,  -2786,    491,   -958,  -3985,  -2332,   1055,   1238,   4418,   4895,   5798,   1662,   1505,  -5172,  -2911,   1464,   2590,   -593,   3663,  -1340,    -58,   6544,  -2728,   5612,  -5390,   2715,  -1667,    706,  -4349,  -2618,  -1613,   -743,  -2091,  -5090,  -2725,   4614,  -2691,   3031,   2641,  -3793,   3138,  -1154,  -1844,   4154,   5002,   5841,   5149,    114,   3620,   5022,   4128,   6602,   4842,  -1641,   4686,   6676,   6041,   5965,   2947,   5260,   -538,   7133,   3202,   8345,    523,  -3418,   6246,  -3089,   2679,  -1728,  -1855,   2395,   2058,   -541,  -4469,  -1599,  -4831,   2850,  -2638,  -1269,    168,  -5656,  -1686,  -1902,   4941,   3908,   2045,  10148,   2018,   2202,  -3952,   -916,    283,  -5259,  -4448,  -3860,     10,  -4247,  -1525,    -73,  -6700,  -1633,  -4089,    307,  -6142,  -5957,  -4695,  -8330,     68,   2901,   8532,   2091,   4731,  -5273,   1447,  -8963,  -2573,  -4796,      9,  -8135,   1533,   1434,   4430,   -926,  -6068,   -403,   1087,  -2152,    130,  -1353,  -5357,  -6207,  -1618,   3323,  -7150,   -955,   6936,   3906,  -5310,  -3540,   5825,   1319,   -734,  -6589,   1598,   3493,   4095,  -5395,   5639,  -3521,   5894,   2556,  -3317,    713,   1400,  -6055,  -1029,   4174,  -1111,   3551,   1600,   6212,    303,  -6214,   1362,   2869,   9102,  -2896,    822,  -3240,   1604,   3931,   3232,   2492,   7124,  -2766,   1352,   1950,  -1536,  -4946,   6328,   -521,   -661,   1131,   -216,   -144,    568,   -392,  -5188,   -673,  -1826,    614,  -4240,   2107,  -4337,   6895,   1454,   7455,  -2315,   7043,   5928,    284,   -625,
         -2268,   2531,    203,  -1422,  -1389,   3978,   4001,   3349,   9499,   1713,   4941,   7542,  -3201,   4452,    658,  -5918,   4351,  -1119,   3119,   4351,    -94,    -79,   3893,   4925,   8085,   3151,  -7828,    813,   -470,  -4626,  -2258,  -2860, -10427,   -232,   3559,  -1239,  -9573,    214,  -1084,  -4930,  -7490,  -5738,  -2714,  -3162,  -4306,  -4242,  -1330,   5452,  -5949,   1091,   4754,   6274,  -1921,   4223,   -983,   1668,   2077,   4598,   3309,   6784,  -4656,   1288,   4036,  -2794,  -1908,  -2544,   -347,    -49,   1624,   3572,  -6438,    947,   1679,   4683,  -7072,  -5285,  -2482,  -5948,   3449,   2717, -10493,  -4654,   3667,   2420,  -6233,   4246,   5484,  -5827,   3167,   3219,  -6073,  -5050,  -1603,   4097,  -2514,  -5231,   4948,   5823,   3259,    493,   2863,   -536,   6135,   2031,   2040,   1057,   7123,  -4724,   3578,  -4842,   3926,   1588,  -2647,   4408,   -231,    265,    563,   2815,    575,  -6912,   1670,  -1839,   4780,    260,  -6507,     -7,  -4017,   1563,  -7161,  -3890,   7904,   -877,   5154,  -2170,  -1224,  -3838,   3793,  -3004,   1580,  -2706,   4345,  -2948,   1232,    911,    994,  -3576,  -6228,   2713,  -2172,   2410,  -3302,  -1114,   1527,   1628,   2758,   3123,  -1692,   3859,   1380,  -4445,   4047,  -1864,  -5656,   1154,   -585,   2468,  -5844,    416,   2332,  -2939,  -3999,   2508,   4198,   3503,   4791,   -813,  -6554,   2283,   4110,  -2855,  -3489,   5859,  -1264,  -3126,  -1128,   3266,  -4816,  -4175,  -3499,  -5397,   5649,  -2089,   2715,   4453,   5017,   3528,  -2461,   2651,   -439,   5837,  -7340,   6385,  -4618,  -8373,    565,  -1127,  -6564,  -1630,  -2555,   6134,  -6254,  -1428,   2196,  -5367,   2461,   2642,  -1250,   3441,  -4178,  -7178,   -451,   6009,  -5978,  -3261,   4350,  -5244,  -6111,   3193,  -8333,  -5500,   1608,   3389,   3433,  -1324,    299,  -5373,   -994,  -5986,  -3393,   -231,   5168,   2349,   2506,   6917,   4541,    392,   6038,  -2483,   1716,  -2188,     63,  -3198,    596,  -1335,   2445,   4640,   4237,  -7222,   3978,   5062,   2944,  -2092,  -1485,   5676,    578,  -1449,   -782,  -5051,   4422,   3807,  -5599,  -1076,   -230,  -4131,  -2299,   4437,   -232,   3915,   1792,    927,    218,   4198,   8042,  -1920,    149,  -3390,  -5721,   3041,  -3733,  -5474,    759,  -5888,   -479,   -407,  -1337,  -1508,    841,  -5272,     13,  -5470,  -4997,    -79,  -5178,   -333,  -4171,   4023,  -1545,   7605,    397,   2973,   4115,   3058,   6560,  -1910,   3760,  -3142,   3356,   -468,   -523,   1107,   1948,   4578,  -3617,   5651,   -796,   2614,   4160,    511,   -215,   2173,   4240,  -5558,   5795,    -86,   3008,    734, -10429,  -2349,   3145,   4003,   3308,  -3898,  -2846,  -5927,  -2337,   -868,  -1784,   -593,    335,   1215,  -2103,  -2499,  -3397,   6269,    448,    342,  -6964,  -3087,   4611,   6001,  -1082,   2426,     67,  -1061,  -9202,    135,  -4360,  -2461,    758,   2131,    907,  -1757,  -6850,   5127,  -3377,   5618,   6768,   2098,   4563,   5027,  -4836,   -212,  -4892,   4171,   5004,  -3533,   4314,  -1733,   3117,   1060,  -4740,   2048,  -5112,   4868,  -1527,  -1035,   3513,  -3013,  -5315,   4325,    603,  -4896,  -6102,    987,   5061,   3662,   6075,   4942,  -2157,  -3783,  -1670,   1447,   -784,   3907,  -3606,   3491,  -4298,   1331,   1540,  -1039,   5926,  -2337,  -3765,   5540,   3591,   1836,   5598,   2363,  -2300,  -1431,  -4517,   3070,   2270,   4285,   3349,   1931,  -4216,   3935,  -6362,  -1845,   3375,  -2839,  -3421,    893,   3447,   4160,  -5633,   3181,   6351,  -4462,     90,   6019,  -4447,   2857,   5835,   2896,   1115,  -5671,   1816,   3152,  -4077,   4306,  -5972,  -5000,  -5661,   4089,   1692,  -5160,  -2951,   4263,    815,  -3858,  -1198,  -3188,   3281,   1991,  -1272,   1187,  -3956,    388,   4273,    994,   6632,  -7510,   -544,  -1867,   2030,   3281,    578,   2026,   5696,  -7703,  -2587,  -2185,    266,   3048,  -1861,  -2596,   -436,  -4892,  -6772,   2263,  -1569,   2859,    496,   5466,   2564,  -5774,  -1214,   1309,  -4507,  -1120,
          1270,   -548,   1174,   6345,   1803,  -6587,  -2506,   1740,  -3461,   1259,   5832,   2601,   -157,   2665,  -6091,     69,  -4015,  -5059,   7937,     17,   1217,   3253,  -4269,  -1485,   -383,    681,     17,   4537,   7678,   5401,  -2664,   5143,  -5741,  -1355,  -4230,   8012,   -301,   4270,   1625,  -5041,  10222,  -2115,  -3657,  -1743,   3769,   6947,   -447,   2347,  -6490,  -3196,  -1318,   4404,  -6369,  -3738,   4753,   4965,  -3575,  -4623,  -1593,   3550,  -1836,   1150,   3891,   3262,   6929,   -955,   5438,   6557,   -129,  -1895,   3724,   2813,  -3374,   2358,   1728,   1276,   -673,   2984,    976,   5427,  -8337,     37,  -1484,   2803,  -3738,     -4,   -714,   3908,   4751,    270,   -407,   -631,    167,  -4576,   1059,  -4124,   5254,  -1828,  -3049,  -2195,   2026,  -4009,   4666,   -748,   8235,  -1091,  -4875,  -5838,   1376,    980,   1502,    488,   4743,    559,   6747,  -5195,  10735,  -4436,   4215,  -4366,   -719,   6724,   3918,   -440,  -1656,  -6480,   1770,  -1141,   2789,   2940,  -1630,   1031,  -3052,    -64,   -381,  -1197,  -3945,  -1119,   3340,  -5722,   -422,  -4822,  -3280,  -1653,  -2352,    401,   -751,   2238,   4168,  -5973,  -1498,   1337,  -1248,  -3822,  -3103,  -1366,  -4718,   -960,  -6061,  -1544,   8425,  -1404,   7765,    353,    333,  -5025,    704,   4113,   9957,  -1873,  -2991,   6706,   7944,   1275,   4745,   5109,   1855,  -3504,  -5077,  -2413,   5833,    629,   2786,  -4762,   -197,   5466,   4834,   5616,  -2683,   5993,   2669,   3451,   1209,  -2990,   2954,   1986,   -717,   -860,  -2508,  -2713,   4244,   4552,   4363,    793,  -4440,  -1563,   1305,   -623,   1540,  -1869,   4333,   6660,   4073,   3589,   2969,  -1037,   1347,  -4136,  -1711,    781,  -1425,  -4940,   1021,  -6097,  -4987,  -5327,    -78,  -2674,   -277,  -2104,   -380,   2240,  -6527,  -2249,    762,   2592,   4119,  -7211,    -72,  -5171,   2532,   3729,   2544,   8047,   4691,  -6290,  -3515,  -5009,   2845,   2448,   2269,   1234,    882,  -3495,  -2103,   -633,  -5420,  -3401,   3024,    839,   -377,   1257,  -1993,  -4795,   -348,  -3592,   -715,    425,   3252,  -5103,  -4000,  -4348,  -4611,   6592,    642,   -826,  -7612,  -3971,  -4829,   1228,   2517,   1383,  -3314,   4019,   2425,  -1958,  -1214,   -758,   6772,   4975,   4026,  10584,  -1400,   1966,   3026,    392,  -2163,   5121,   5980,  10864,   7355,   5456,    518,  -5215,   6899,   3452,   7169,   5202,   6444,  -5818,   -143,   4806,   1677,   5811,   4356,  -2961,   2171,   -476,    177,    370,   1059,  -3688,   3827,  -4018,  -2646,  -3364,   2522,   -842,  -5637,  -3622,   5320,   -891,    -34,   4916,   5628,  -2423,   8823,  -2038,   4568,   5991,   1875,   3832,   1130,   1543,  -4536,  -3260,  -4616,  -2827,   -718,  -4414,   4987,    323,  -2613,   2247,   3293,   2806,   -592,   2802,  -2843,    109,   1262,   3539,  -7294,   4698,   5272,  -4225,    991,    388,  -4495,  -4407,   3976,  -3317,  -3032,  -6035,  -2649,  -5353,   1464,   2999,   -850,   1202,   8927,   4234,  -5070,  -3812,   -935,  -2219,  -2398,   5842,  -2554,  -5783,  -1323,  -3351,   -220,  -1423,  -3118,  -6794,   3752,  -1307,   1276,  -2455,  10189,  -3533,   5779,   1462,  -3483,   1086,  -3884,  -3215,   7752,  -4477,  -1498,   1448,   8676,   4886,   5883,  -2920,   7423,   -344,   3543,   1553,    -44,   3469,  -2881,  -3617,  -3422,    812,   6332,  -3047,    544,  -5322,   3696,   -439,     64,   5069,  -4229,   1190,   6016,  -1084,   4470,   1159,   3246,  -4621,  -2514,   9802,   9258,   -724,  -1419,  -4363,   5205,  -4600,   1933,  10919,   2928,   2373,   5300,  -1781,  -4314,   2859,   1529,   9259,   3334,   2724,   4376,   5796,   3188,   5954,   2562,  -8245,  -7290,  -1166,   5231,   3249,  -8714,   5604,   -989,   2478,  -1821,  -3873,  -1538,  -5010,   4010,  -4444,  -5648,   1758,   6093,    413,  -4105,  -4338,  10779,   2282,    302,  -1897,   1855,  -6277,  -3730,   5173,  -2981,   3104,   4484,   6900,  -6984,  -5597,   3439,  -4412,  -5991,   3119,  -6798,   6926,  -3727,   -598,   1573,  -6152,
           595,  -1164,   5656,  -1524,   -151,    486,  -2339,   2724,   3174,   -884,  -1078,   2607,  -2894,   3910,   -994,   4725,   2480,  -3709,  -3655,   1902,  -4068,   3664,  -5676,   -594,   -805,  -3079,   3374,   1389,  -2155,   2362,   -631,   5727,  -2309,  -1378,  -1867,   3772,    -43,  -1343,  -5663,    929,   4271,  -2037,  -4957,   7898,  -4847,  -2480,   1330,   1994,  -1750,    369,   1959,   -640,    168,   4355,  -3126,  -2813,   4087,   6058,    206,   -887,   7059,  -4400,   4874,   -262,   4421,    839,  -3214,   2534,   6512,   1219,   1250,  -5398,  -4316,   -540,   4796,  -3939,  -3096,   1308,   2946,   -469,   4896,  -6304,   4153,   7227,   1345,  -4528,  -5746,  -3723,  -1813,   3683,   -892,  -3333,    981,  -5388,  -4331,  -1095,   1633,   -217,  -5850,   1041,   6403,   -911,   1773,   3497,  -4048,  -2652,   3321,   4808,   -311,  -1800,  -1181,   1835,  -2127,   2259,    -17,   4442,  -1836,    795,   -804,   2215,  -4758,  -4777,   4066,   4341,   -500,   -940,  -4318,   3355,   3735,  -4684,    915,   5418,  -2684,  -5118,   2464,  -6074,   5811,  -6008,   1896,   7226,  -2205,   4954,  -3130,  -6630,   -277,  -6184,   4661,  -6099,    208,   -354,     -1,    432,   3811,  -1825,   4788,  -3297,  -5256,  -5713,   -112,   5414,   4851,    386,   4591,   5500,   6482,    -25,   3408,   5983,   4483,   5111,  -5471,   3994,   1884,   4693,   -607,   3976,   6725,   5026,   2868,   1155,   3490,   -673,  -1997,    764,  -6382,   4720,   -659,  -4605,   1454,  -5267,  -2052,  -5051,   3865,   3952,   -264,  15377,  -2070,   4781,  -5461,   4830,   2502,  -1860,   4576,    464,  -2748,   6108,   4743,  -5022,    802,  -1363,   2032,   7220,  10400,  -5199,  -3690,   1961,  -5106,    383,   5605,  10286,  -5978,   6002,   1439,  -4782,  -4993,   3213,  -3437,  -7963,   3578,   -326,  -2655,  -1555,  -2303,  -1682,  -3647,   6598,   4736,  -4941,   3287,   2758,   4828,  -3425,    -99,   -489,   3357,    -50,  -1851,   3171,   2993,  -3311,  -4551,   3997,   2651,   4894,  -5496,  -5246,  -1444,   1508,  -4917,   5501,   1352,    425,   4460,  -3954,   1749,  -6076,   5677,   3246,   3911,  -3641,   4366,  -5148,   4206,  -6436,   3518,   5757,   5363,   4287,   5962,  -2538,    411,  -3523,  -3525,   7671,   -645,   -932,  -5562,   1757,  -1538,  -1147,   4794,   7564,   3688,   3235,  -4060,    262,   3297,  -1949,   2824,   2021,   5872,   3164,   3234,  -1129,  -2304,    837,  -3004,  -6557,   8774,   6381,  -1209,   4514,    -12,   4190,  -6411,  -2041,   4612,  -3033,    775,  -1320,   3408,   3787,   -158,   5866,   2045,   3124,   2783,  -3294,  -9539,  -3755,   3561,    512,   1283,   -513,   -574,  -4356,   5341,  -1107,  -2754,  18900, -10645,   2504,    679,   2366,  14214,  -4805,  -1075,   7453,   7638,   1079,    883,   1000,  -2933,   3758,   3467,   -295,   2556,  -1980,  -1448,  -3227,   2428,  -5031,  -1610,    874,  -1933,   -157,  -3125,  -2971,   -994,  -1445,  -5912,   5388,   5374,   4601,  -5427,   3136,   5509,   -155,  -2872,   6493,  -3264,   1518,  -6535,   5073,  -4670,  -6567,  -5074,   2626,   5757,  -6080,  -4397,   3871,   1540,  -3657,   -900,  12376,   4623,  -5586,   -488,   3036,  -1630,   -701,  -4040,  -6110,   3668,   4611,  -6862,  -3196,  -1924,  -3961,  -1384,    158,  -1042,   1760,   5132,  -4093,  -6093,  -5447,  -1423,   1745,    802,  -3975,   1099,   -550,    441,  -3584,  -1865,  11857,  -2874,     93,  -5738,   4163,   4060,   -570,  -1224,   2969,  -4287,  -5393,   5865,   4713,  -3858,  -2658,   1711,   4200,  11459,   5712,  -5448,   7236,  -1208,  -4779,   -805,   5921,  -3837,   1400,   1640,   4806,   4477,   3631,  -2736,  12086,    396,   5479,  -6413,    100,  -6307,  -2247,   4709,  -1407,  -1857,  -2435,  -3678,  -4643,  -3663,   -689,  -6921,    -27,  -3953,  -1491,  -4585,  -5895,  -3783,  -2197,   -576,   4277,  -4722,  -1029,  -3868,  -2097,  12394,   6275,   4395,   9358,   6181,  -2905,   4022,    281,   5845,  -1305,  -4799,  -9330,   3978,   4531,  -1800,   2112,  -5038,   1810,   2763,   4999,   -738,   2920,  -4674,  -2730,
         -4748,   4072,   4149,  -1975,   6204,   5581,  -6323,  -2437,  -3503,  -1722,  -3066,   8145,  10373,  -2532,    650,    897,   5355,    642,  -2345,   1176,  -3293,  -5259,  -4258,   4982,    208,  -4484,   5175,   -743,   2380,   5369,  -4810,   2896,  -3800,  -5144,   6096,   8469,  -1251,   3065,   -591,   2871,   2411,  -4071,   5274,  -2988,   2431,   6229,  -4558,   3078,   3722,   1833,   4721,    920,  -4551,   3262,  -1247,   -860,   1706,   5586,   4707,   7183,    227,   -798,  -2331,  -1948,   5891,   9040,   2983,    990,   8648,   4504,   -509,  -1985,  13918,   2201,  -2449,  -2683,   8237,  -2720,   5334,  -1930,  20246,   3494,   5471,  12597,   4201,   4241,   3457,  -3372,   9060,  -2556,    892,    959,   5166,  -1663,  -3726,   4389,   1350,   4477,   5040,  -6321,     39,  -1612,   4368,   4533,   5605,   3083,   1610,  -2401,  -4620,   3719,  -3260,  -1763,    571,   2775,   -976,   2016,   3998,  -3001,  -6586,  -3540,   1062,  -1607,   1152, -11087,   8099,  -3178,  -2174,  -5536,   5157,   2338,   4329,  -2494,   7857,  -3673,  -3876,  -1292,  -3730,    412,   3119,  -3545,   8261,  -5422,  -6713,   2053,  -5698,  -4820,   4354,  11696,  -3360,  -2549,  -6002,  -5391,   -178,   3608,   3760,   3253,  -3817,   4828,  -1834,  -2302,   5959,  -2105,   2935,   2009,   6146,   1014,    656,  -5552,   3414,  -5142,  -5698,  -7536,  -3624,   5410,  -3618,  -5175,   3605,   2319,   3781, -10567,  -1671,   5138,    -90,  -4765,   1266,  -2011,   3602,  -3077,    933,  -3766,  -3086,  -1281,    304,  -1173,   7383,   3434,  -2844,  -3976,   2626,   3975,   5020,  -6988,  -3911,   1144,  -7523,  -3524,   3522,  -1599,   4594,  -3220,   1215,   1221,   1395,  -2599,   1408,   1841,   8461,   -187,  -1991,   8326,  -2512,  -1057,   3980,   7853,   3452,   -196,   6054,   3373,  -5199,   1799,   5172,   5208,   8071,  -5194,   4668,   2916,    644,   3669,  -6790,  -6198,  -1987,   1492,   -351,   1224,  -5070,   5264,  -1111,  -3636,   3778,   -175,  -4267,   8273,  -4393,   5077,  -5767,   4362,  10011,  -5680,  -2643,  -1462,  -1747,  -6045,  -6619,   2694,   9622,   3697,  -4848,   7249,   5976,   4532,  -1116,   4549,  -5660,  -5784,   3193,   3060,   -145,   2469,   2093,   5464,   2930,   4974,  -1012,   6286,  -3074,  -5888,  -2334,   3734,   6176,  -1022,    239,   7085,   2270,   3532,   4705,   -246,  -5406,   1702,  -3489,   2846,  -6941,  -2581,   4055,  -2277,   4470,   3635,   3114,   6135,  -3373,   -562,   1599,   -541,   -439,  -1611,   5053,  -1743,  -5460,  -2666,   -688,    648,  -2106,   3100,  -5946, -10125,   2057,  -5787,   4317,  -3736,   3667,   4010,   1214,  -3636,    334,  -3127,   4733,  -4267,   7630,  -5362,   -838,    725,  -4087,  -1668,  -3938,   5910,  -2822,   1497,   1283,  -4405,  -5074,  -2919,   -838,   1021,   8317,  -2399,   -777,    233,  -1342,   5634,   4041,   4137,   6012,  -2025,   3366,   -488,   -823,  -1019,   1694,   8992,  11646,   2242,   7147,  10508,  -1571,   4067,  -4674,  -3897,  11469,   2068,  -4160,   -607,  -1152,  -3496,    941,  -2656,   1471,  -5528,  -6838,  -2812,  -6503,  -2065,   4301,  -3794,   1686,  -5081,   1261,   3808,  -5115,  -2690,  -4989,   2447,  -7272,   2004,  -3064,    316,    -37,  -2857,   -173,  -1574,   3028,    306,  -3803,   3930,  -5044,  -5689,  -5540,  -2383,  -6286,   3500,   1296,   4996,  -9673,  -2617,  -3982,  -2142,   -813,  -5313,  -2922,   3002,   3549,    -72,  -3429,   -300,  -1668,  -1489,  -6476,   7763,  -4148,   1033,   2984,  -1373,  -5758,   3832,  -5291,  -4196,  -1982,   2851,   1383,   1041,   3111,   1677,  -4991,   2800,  -6293,   2429,  -5506,   1375,   2224,  -6309,  -1166,  -1140,  -6855,   5156,  -5865,   -171,   2201,   1863,  -3907,  -3655,   -701,  -4724,  -4726,   5611,   8274,   -638,  -2623,  -4330,   4308,  -2910,  -2489,    192,   6017,  -1689,   5863,  -1938,    -38,  -1491,   5126,  -3489,   4090,      6,   5409,   -334,   6574,  -3008,   5081,   4426,  -6744,    591,   6862,   7756,   -210,    388,   2945,   1204,  10087,   6248,    886,   4079,   3322,  -2513,  -1846,  -2788,
         12292,  -3539,   1358,   4693,  -2620,   6889,    259,  -4155,   1998,  -3776,   1775,   5019,   1912,  -1086,  -1146,   5332,   -528,  -4752,  -1938,  -5185,  -4255,    730,  -4888,    836,  -1966,  -2425,   -542,   5552,  -1618,  -5528,  -1619,  -4933,  -9465,  -3104,  -3255,   4550,   5801,  -3097,  -5042,   1933,  -4459,  -4647,   3620,  -1597,  -1958,   2108,  -5323,  -2174,   2944,  -5686,  -3908,   1421,  -7452,  -5294,  -3594,  -3046,   3165,   4440,  -3398,   -462,   4602,  -2914,  -4291,  -2951,  -3642,  -1810,    906,   7305,   8009,  -3878,  -1137,  -5315,   6197,   2569,  -3248,  -2545,   4615,   1895,  -6129,    184,  -2699,  -3769,   2418,  -4172,  -4242,   5236,    625,  -3529,   3699,  -3567,  -2722,    942,  -8595,   1783,   -854,   -391,   -135,     -5,  -1335,  -5731,  -1996,    890,   1716,  -3257,   2818,  -2026,   5293,   2336,   1215,  -6254,  -2831,   5625,  -7549,  -1756,  -2038,  -4652,  -1362,  -3299,  -4926,   -335,    281,  -3130,  -2703,   7257,   3372,  -4421,    544,  -3677, -10130,   5022,  -1206,   3234,   -516,    561,  -1327,   -249,  -3349,   1518,  -2899,   3929,  -3399,   4869,  -5285,  -6094,  -4636,   3637,  -6116,  -1212,  -5706,   -188,   -690,   -189,  -6026,  -4179,  -4463,  -1153,  -3168,   3756,   4014,  -5493,  -5590,  -4643,   2167,   2276,  -8327,  -4724,  -5449,  -5533,  -5678,    353,  -6155,  -2780,  -1468,    474,  -6365,   3844,  -2926,  -4713,  -1238,  -2561,  -6188,   4280,  -7041,   1640,  -1896,  -5304,   -871,  -2521,   -225,   2945,  -1572,   4719,   2689,   3492,  -4128,    213,    388,  -5779,  -6177,   3350,   4071,  -1834,   9213,   8929,   -251,   -652,  -6149,  -3397,   1145,  -4801,  -1884,   -612,  -3875,    997,  -1967,  -3878,   6104,  -1295,  -2448,   -801,   6034,  -3833,  -1361,  -5364,  -4688,  -2653,    301,  -2500,  -1306,  -2842,   5862,    856,  -4008,  -3048,  -4110,  -4474,  -3037,   5938,  -2835,    589,   3058,   -480,  -2333,  -4845,   1258,  -4188,  -4306,   2514,  -7204,   -389,   4465,   3674,  -6939,  -4087,    659,  -1561,   2776,   1147,  -6639,  -4065,  -1436,  -5812,   2116,  -4730,   7052,  -2828,  -7841,  -4054,  -2271,  -5078,  -3703,  -6324,  -1488,  -2321,   4632,   -173,   3671,  -1082,   4352,  -4213,   -123,   4692,     -3,   6968,  -2455,    168,  -5719,    544,  -6113,  -3534,    835,  -3285,  -1148,   2941,  -3180,   5444,  -4745,  -6378,  -1052,  -3248,  -7946,   1936,  -2725,  -3890,  -4115,  -2947,   2155,  -4854,  -9400,  -6774,  -4742,  -2486,    357,  -4397,    177,  -1812,  -5103,   -206,  -3854,  -4582,    117,  -4778,   5865,  -3376,  -1920,  -3736,   -195,  -6213,  -1190,   3296,   4632,   2678,  -4204,   5454,  -6256,    505,  -7273,     57,  -8997, -10483,  -2019,   -828,  -4198,  -1797,  -2271,   5506,  -3763,  -1410,  -2993,   5452,  -2423,   1148,   3530,  -2813,  -4834,   -726,    860,  -2998,   2097,  -1445,  -5772,   4910,  -2179,   -452,   3521,   1089,   -275,    136,  -1232,  -4391,   3966,   2997,   6348,    -79,  -4907,   6133,   5146,  -6568,  -6262,   -854,  -5361,  -1553,   3329,   2391,  -3439,   2636,   1335,    394,   4926,    497,  -4361,  -4659,   8409,  -1010,   1639,     43,    396,   2475,   4929,   3677,   3083,  -5376,  -5751,  -3004,  -5182,   -252,    206,   4817,   2751,  -6924,  -2575,  -7377,  -5802,   4452,    406,    616,   3662,   3115,   7326,  -6781,   2537,   3951,  -1344,  -4093, -10320,  -4383,   4529,  -2439,   4868,  -2552,   4854,  -6179,  10067,  -1309,   4628,   2336,  -3481,  -3999,   2950,   -400,  -3633,   1204,  -5135,   9030,  -3890,   1724,  -5096,   1287,  -7670,  -1766,   -651,   -194,  -5220,    554,   4528,  -5421,   5355,  -4116,   2653,  -4463,  -2563,  -6567,   1503,  -6555,   4754,  -1760,   2104,  -6851,  -5307,  -1388,   -977,   2528,   2036,   3539,   4081,   -686,  -1734,  -3711,   2617,     13,   3205,  -5714,  -1405,  -2709,  -8542,    832,     37,   2698,  -2148,   3752,  -6515,    551,  -6470,   -793,  -1928,    441,   4037,  -1159,   -838,   3249,   2469,  -5658,  -1675,  -3986,   1040,   5521,   5179,  -9226,  -1406,  -5913,  -4680,  -5744,
         -3412,  -5867,   2353,   7475,    576,  -2594,   -612,   2414,  -2799,  -4083,  -2671,  -4238,   -304,   3297,   -554,   -739,    253,     34,     95,  -6208,  -2653,  -6771,  -4513,  -6707,   5220,  -4109,   2422,   -907,  -4212,    449,  -3334,  -5138,   9658,  -4647,   3251,   3318,  -6710,  -8233,   4815,   3098,   2927,  -4279,   5015,   2563,  -5224,   1203,   3868,  -6862,    834,   3875,   4154,   6724,   4328,  -5212,    618,  -4348,  -3361,    987,   8711,  -7303,  -2862,  -1248,  -4838,  -4855,   8276,   6187,  -3330,   2199,  -1437,  -1049,   -548,  -5171,  -1571,  -4495,   5303,  -2081,  -6267,   5037,    802,  -3993,   6376,  -6372,  -3718,   -507,  -6598,   1226,   -138,   3405,   4970,   4412,   1275,   5754,   1697,  -6540,  -6252,  -3291,   2669,  -4924,  -4926,   -402,   6379,  -2594,   2002,   3830,   8212,  -3564,   4010, -13376,   2038,  -3328,   2377,  -2284,   -527,  -5791,   3611,  -1873,  -6062,   5660,  -6283,   -181,  -4691,   4212,   3290,   8495,  -3669,   1060,   2586,  -4335,  -2689,  -4384,    -84,  11465,   1924,   4933,    221,  -6498,  -8138,  -3632,    321,  -2071,   -304,  -1230,  -3060,  -1420,     86,   4921,  -6740,   1860,  -2680,   4267,    746,  -6435,  -2618,  -4455,  -5372,  -2890,  -2238,    903,  -4926,   1884,   4223,    981,  -2574,   2637,  -3003,  -7266,  -2402,  -7146,  -1301,   -431,  -4247,   4529,  -8181,   5956,  -4561,   2436,    554,   2619,   3260,     95,   1398,   4478,   4710,  -5948,  -3442,   3588,  -2257,  -2117,   4036,   4389,   4131,   2820,    425,  -2305,  -3072,   3519,    792,  -3269,  -4721,   3106,  -2549,   5366,  -3851,  -1760,    221,   1522,    109,   4734,   1645,   7108,    502,   3931,  -3991,   3146,   2758,  -4804,   1264,   1201,  -3561,   6331,  -1109,   -747,  -2408,  -3246,  -5872,   3266,  -5331,  -1438,   4545,  -3571,  -1978,   1358, -10697,  -5176,  -3229, -12290,   -474,   2183,   2119,  -6926,  -5071,    653,  -4849, -10189,  -3969,  -1735,  -3068,   -496,  -6510,   3280,  -5497,  -6079,  -4628,  -6602,   3077,   1006,  -3496,   1693,  -5123,   1456,  -2446,  -1954,  -7057,  -2852,  -3366,  -4805,  -3353,   1546,  -3616,  -1710,   4883,   3481,  -5889,   1284,   5844,   7245,  -6897,    364,   5483,  -1677,   1930,  -4353,  -3567,  -3772,  -6434,   1932,  -4337,  -3076,   -691,  -1879,  -3036,  -5288,  -4883,  -4794,  -1628,   1959,  -6637,    171,  -7229,  -1202,  -7006,   2409,  -3135,   3921,  -7579,  -4733,  -6183,    209,  -6572,  -1013,  -1469,   -300,  -7492,   2810,    223,   1845,  -5558,  -3980,   4947,  -3181,   2081,   4273,   3673,  -3194,  -4450,     22,   1054,   3219,  -5071,   2426,   1469,   -917,  -2766,   2396,   6072,  -2484,  -8879,   1280,   -772,  -9514,  -6487,  -5632,  -5544,   1974,   4748,   6040,   3640,  -2570,   3991,   1093,  -3982,  -1806,    243,  -3548,   4974,   5758,    842,  -4466,  -1728,   3583,   7704,    423,    988,   9265,   7491,  -5703,  -2590,   4326,  -7670,   2762,   4349,  -5917,   3617,  -6635,    279,   3199,  -8883,   3538,  -2364, -11199,  -3487,  -1606,   5396,    444,  -4076,   4119,  -1157,   3432,  -5243,    478,  -4395,  -3802,   1642,    471,    832,    836,  -7396,  -3291,   5085,   4570,   1847,   -118,   -279,   9068,  -3118,   4160,  -2948,   2677,  -4650,  -1060,  -1482,  13649,  -7338,   5381,  -6461,   -597,  -4032,  -6160,  -2340,   4895,   8085,   4756,   5256,   -292,  -5666,  -3708,  -5289,  -2100,   1083,  -5994,  -3662,     75,   -630,   2242,  -4554,  -5839,  -4796,   4002,  -3367,  -3691,  -5612,  -6867,   3956,  -7792,  -8537,  -8457,  -7112,  -4705,   1298,  -7532,  -5352,   1094,   3914,   2597,   3688,  -7549,  -2935,  -2657,  -3639,  -3280,    375,   3746,   3636,  -3756,  -1830,   2950,   1898,  -3811,   1709,   1169,    478,  -6917,   5709,    120,   5029,   6916,  -3433,  -5721,    643,   3201,   6814,  -2190,    472,  -4389,   -165,    291,  -3809,   2754,   6848,  -5837,  -2570,    692,   6090,   -676,  -5292,  -6052,   7357,   2494,  -4859,   -370,   7929,  -2372,   1454,  -2413,   1607,   2806,   6129,   -124,  -5133,   5057,   3475,  -2760,
          -590,  -2537,   1748,  -5493,  -5425,   5382,  -5682,   2309,  -3318,  -3238,    355,  -8194,  -5231,  -2117,  -4420,  -1380,  -3129,   1558,  -1199,  -6806,    131,  -3766,    367,  -3042,  -2785,   3718,   1288,   5221,   2022,   2878,  -2126,  -1889,   6405,   6229,  -2419,   1299,   -740,  -1871,    640,  -5458,   6117,   3143,   1709,   5559,  -1680,   4003,  -4890,  -1256,   4114,  -1142,   5448,  -4229,   6516,   3384,   2991,  -6166,   -686,  -5291,    423,   3633,  -1007,   3925,   3557,  -1582,  -3481,   2582,  -5426,  -4827,  -5573,   3735,   2590,   4878,  -2704,  -6190,   3289,  -3852,  -3977,  -1033,  -2166,   1070,  -5540,  -3752,   -381,  -1464,  -5716,  -3339,   -195,    213,  -3673,  -3276,   3685,  -1380,    919,   3089,  -2350,   3970,  -5223,  -6492,  -2253,  -3424,   5511,  -6380,  -4470,  -2126,  10711,   5177,   3118,   3483,  -1932,   2451,   1904,  -4548,   3964,  -4908,    528,   4206,   2856,   1668,   1219,    825,  -1220,   6385,   2161,  -1109,   9183,  -3968,  -5605,  -5753,    848,   4709,  -2741,   5382,  10665,    360,   3982,  -3376,  -1860,   -648,  -1031,  -1301,   2141,  -2645,  -3783,   2504,  -3719,   3940,  -2848,   7653,  -6426,    706,   2883,   4205,  -4492,   4494,   5612,   4201,    567,   6261,  -4664,  -4565,  -4653,  -4660,   2663,   1193,  -6534,    202,  -2920,    902,  -4632,   2921,    149, -15073,  -8109,  -2902,  -5113,   6557,  13968,   1511,   3216,   4118,   3845,    577,   4162,  -2461,  -5403,   2984,   4168,  13558,   7412,  -2541,   1887,  -2894,   1988,  -2825,    848,   3550,   2674,  -1355,   6146,  -5428,  -1383,    363,    868,  13570,   3819,   -648,   3261,  -6078,   -194,  -2457,   -706,  -3316,    985,   2677,   2654,   5037,  -3949,   -443,  -1122,  -8676,  -2359,   1198,   5297,   2554,   4801,   4882,   6951,  -5008,   4700,   4276,   5729,  -4905,    848,  -6089,    602,  -4161,   1267,  -5781,   3039,   2412,  -4391,    766,  -1044,  -2151,  -4320,   3841,   1949,  -1874,   -151,  -4653,  -8672,    -41,   4036,    871,    168,   2856,  -2173,   4435,  -4949,   1702,  -1965,  -1221,  -1535,  -4191,   1568,  -1646,  -5210,   5399,   1093,   5029,    207,   1377,   3363,  -5701,   5068,  -4047,   4598,  -2695,  -4281,  -3056,   -882,   2294,  -2800,   3478,   2318,     64,   2186,   2980,   5699,    -14,  -2429,   7327,   2766,  -2118,   1335,   3355,   4900,  -6842,   1355,  10940,    527,    937,   5773,  -4693,   2822,    998,  -2475,   1433,   -864,   4648,   -580,  -5407,  -9440,   1977,     36,   7515,  -6450,  -1228,  -5165,   -387,  -7627,   3516,  -7350,   9501,  -9660,   2582,   3213,   1255,   3699,  -1742,  -3704,   8479,  -4183,   -113,    496,  -4492,  -4326,   -405,  -5181,  10981,   1328,  -3674,  -2909,  -1400,   2064,  -2237,  -4753,   4035,      4,   5892,   3591,   5484,   4295,   2187,  -5444,  -7258,  -7453,  -5666,  -2998,   4920,   2380,  -1655,   2626,   4319,  -2762,  -1878,   2249,   1650,  -4715,   -438,  -4806,   4249,   3321,  -2663,  -5367,   2100,  -2575,   3972,   3087,   2228,   1875,  -5048,  -4517,  -2797,  -3599,  -2824,  -1918,  -2584,  -1309,  -1137,    861,   -675,  -2420,  -6501,  -6011, -10433,  -6706,   3312,  -4577,  -6134,   6644,    739,  -1183,   -705,   4549,     45,  -5269,  -4766,  -2407,  -5046,   1660,  -5915,   4970,   1354,     10,  -4474,    798,   5290,   3759,   -480,   8057,  -4569,  -3138,  -4929,   2523,  -4915,  -2013,   7246,   -519,    763,  -1691,  -1153,  -6866,  -3577,    -93,   1095,    288,   1565,  -1345,   5004,   5823,  -5565,   2876,   1402,  -2428,  -1271,    236,  -3446,  -7493,  -1591,  -4223,   8025,   3569,  -4733,     73,   4382,  -8255,   2954,  -4454,  -9594,  -5337,   6690,    472,  -4242,  -1389,    223,  -1847,   -702,   8891,   2009,  -2365,  -3766,   1792,  -4387,    809,   7126,   5495,   2001,  -4618,   3607,  -4333,   4715,   2356,   3192,  -1539,  -2514,   4233,  -1606,   2053,  -2801,  -4391,  -1904,   3809,  -5480,  -4834,   4846,   2022,  -6119,   5975,   4814,  -3638,  -5330,   3667,  -5291,  -2785,  -4587,   1152,  -4962,  -4820,  -1099,  -1969,   3148,
           190,  -5571,   -854,  -2264,  -6456,   1785,   3168,  -7941,    815,   1931,   7119,   -124,   2006,   1927,  -6244,     46,  -1672,  -1629,    146,   4992,   -224,   1981,  -4282,  -3860,    961,  -4304,     62,   2304,   1257,  -4133,   3043,  -4434,  10600,   6008,   3436,   1127,  -3674,   6997,   -452,   3442,  -4083,    150,  -5184,  -5103,   -109,   1242,   2394,  -1601,  -7778,   1407,  -3068,  -4046,   4284,  -4557,   4193,  -4029,    390,  -3490,  -6656,   4794,   1056,  -6114,  -1473,    218,  -6257,  -6002,   4151,    336,  -5271,  -1089,   -145,  -1885,  -9767,  -5943,  -3799,  -2407,   6574,  -4532,    813,   -401,    998,  -5518,   4366,    915,   9969,  -3876,  -6771,   5531,   2567,    221,   4088,  -3708, -11192,   9401,    362,  -1628,   2142,  -5271,   2509,  -4359,   -374,   5813,   -821,  -3375,   1583,  -2758,  -2523,  11058,   8459,   -250,  -3580,  -3956,  -2558,   -618,   6541,  10240,  -3873,  -2351,   2064,   -773,  -1669,  -2977,    997,   4837,  -1018,   -322,   3844,  -1042,  -4867,    938,  -1928,  -3391,  -4742,   2286,   1216,   4469,   3682,  -5252,  -4975,   2483,   3802,    960,   3509,   4519,  -1145,   -774,  -6002,   2025,  -6160,    543,     63,   4262,  -4720,   1607,    360,  -1465,   1550,   2884,  -5195,  -6022,  -4199,  -5420,   4633,   3012,     67,   5010,   -412,   -244,   3066,  -1810,   6872,   8753,  -4647,  -1434,  -1566,  -4921,  -3219,  -2884,   1889,   4230,  -1566,   3313,   2077,  -4955,  -3202,   4681,   2208,  -3571,   7502,     36,  -2244,  -4038,  -5119,   2287,   5163,  -3240,   8867,   2147,   1624,  -1475,  -4114,  -1607,  -3670,   -820,   1278,   3659,  -4955,   3045,  -2558,   3504,  -4737,   3937,   -380,  -2243,  -4487,   4362,  14254,   2863,   1858,   6324,   -433,    396,   4114,   -507,   1781,   1451,  -3691,   3685,  -1178,  -2386,   -233,    336,   1231,    972,   -395,   3813,  -2806,  -4965,   -859,  -3321,   5065,  -2148,   3725,   6383,  -2388,   4361,   4789,   1970,   2903,  -5065,  -4951,  10379,   6517,   2517,  -1388,   2865,   2210,   5901,   2640,   2233,  -5893,  -4131,  -1914,  -5809,   1847,    821,   6008,    585,   3520,  -3315,  -5082,  -5217,   -508,    877,   4329,  -1612,   4619,  -4251,  -5424,   4426,  -4714,   5286,   4175,   -549,   6022,   4164,  -6634,  -4176,  -3277,    749,   5735,     89,  -2188,  -3362,  -3074,   1143,   4285,    480,   2924,   3101,  -3735,  -3410,    729,    533,   3102,   2978,    527,   3465,   -270,   4035,  -3851,  -6858,  -4120,  -5124,   5870,  -3243,   1948,   2302,  -2403,  -5834,  -1883,   3750,  -3651,   4042,   4469,  -3736,   -749,  -3356,    878,    104,  -4117,   2579,  -3737,   1750,   -344,  -3313,  -3175,  -3273,   2486,    -67,   3662,  -1534,  -4284,   3367,  -3895,   3925,  -1734,     93,  -3839,   -742,   -537,  -1519,   2811,  -6232,   2606,  -4919,  -5597,   3880,  -5445,   2350,   1802,   4683,  -6454,   6970,  -5201,   1915,  -4930,   2506,  -3680,   -115,  -5103,   -630,   3832,  -1197,  -4105,   5303,   3672,    809,  -1583,  -3315,    196,  -3552,  -2515,  -3770,   3832,   4244,   1487,   -405,   6008,   4248,   -236,   -141,   4399,   -887,  -2013,  -3227,    459,   4408,  -3515,  -5531,   -884,   1552,   6124,   3663,  -2925,   6054,   2361,   1097,   4557,   5756,   5508,  -1530,   -543,     66,  -6864,  -1320,   -505,  -3979,  -4932,   1935,  -3547,  -1322,   4312,  -7178,   -860,   1540,  -4133,  -3650,    515,   -739,  -5469,  -5429,   1751,  -1299,  -3920,  12110,   5986,   4990,  -6488,   2998,  -4972,   3816,   3236,  -1750,    302,   3611,  -2395,   3395,  -2685,   4635,   3650,  -2423,   5577,   1279,  -4151,  -4987,  -4367,  -1236,  -1852,    164,   1205,  -4730,   -269,   -825,   4927,  -4590,   2520,   4607,  -9245,   2126,   1354,   -744,     12,  -1482,   2751,   3699,    649,  -2421,  -4910,  -5558,  -2274,  -1136,     -8,  -5783,  -7310,   3964,    665,  -4909,    398,   4613,  -3699,   3213,   5128,  -6795,   1185,   4495,  -1906,   4517,  -2412,  -3004,  -2151,   1989,   5062,   5182,  -1966,  -1811,  -2483,  -1570,   2011,  -5404,  -2206,   3050,
         -4180,   2635,  -2477,   3275,  -4045,  -2984,   1236,   2511,   3384,  -3207,   5898,  -7056,    397,   1459,  -3667,   4251,   2614,   3846,  -3243,   5260,   4426,   3471,   5026,  -3153,   1171,  -5627,   2122,   1323,  -4265,   6017,  -1428,   4230,  -1283,  -3826,   3467,  12025,  -2953,   2318,  -6557,  -2024,   1415,   2290,   5398,  -2140,     90,   3391,  -1725,   5488,    -91,   3052,   5738,   -563,   3607,  -4448,   -831,   4519,   -270,   3619,   3019,   -931,   5393,  -1611,   3393,   4579,   4177,  -5936,    862,   3468,   4091,   1741,  -2008,  -6901,   2220,   6064,   4770,  10281,   6090,   5260,  -5653,  -1641,  -3331,  -2339,   2197,   4907,   1449,   -278,   -275,  -4942,   2807,    -74,  -4770,   2266,   -915,   2747,   2072,  -5202,   4179,   6299,   1448,   4326,   2485,    895,   -614,   1733,   -331,  -4843,    483,   3602,  -3642,   1688,  -6513,   4328,   6024,   2400,  -3609,  10655,   4085,  -2674,   -539,  -6003,  -4425,   -528,  -4533,    888,   1898,   -762,  -4727,  -5825,  -3821,      8,  -5525,    998,  -3978,  -1902,   2297,  -1022,   6291,   1866,   -617,  -1979,  -2072,  -1034,  -2604,   3966,  12073,  -5266,    432,   9602,   2646,  -5090,  -4388,   -904,  13684,    512,    468,  -9928,    356,  -1152,    246,   1865,  10935,  -2302,    942,   9440,   -249,   6018,  -4353,   5083,   1310,   -465,  -1463,   6535,   6957,   1001,  -6990,   1279,   2594,   1999,    181,   3090,   6373,   4107,  -3206,  -5828,  -2651,   1548,  -1908,   5570,  -2286,  -5145,  -5070,  -4350,   1961,   3047,   2435,  -6611,  -3125,   -536,   4311,  -5050,   6145,  -2011,  -3160,  -7424,   6608,  -3234,   5189,   2880,   -721,   4789,     69,  -1858,   3486,  -3738,   3381,  -2597,   1032,   5829,  -2446,    557,   6237,   6376,  -1236,   2238,   6175,   -474,  -3856,   4285,   1635,   3580,  -5678,  -3003,   -675,  -1641,    305,   1227,    769,   -539,  -2804,   3490,   6944,   5688,  -5526,   2361,   7428,  -1639,  -1326,  -2682,  -2930,   3831,  -3713,   1058,  -5516,    184,   2962,    793,  -5145,  -6045,   -474,  -4975,  -4796,  -5780,  -4890,   4608,   3020,    334,  -6002,  -4521,   1184,  -7044,    591,   3746,  -3913,   1839,  -6562,   -681,  -2121,  -3032,    796,    424,   2619,  -6581,  -2820,   2569,   2747,  -4307,  -1007,  -5438,   2034,  -4484,  -5956,   -479,  -2740,   5704,  -3543,   2721,  17643,    662,    -51,  -6288,  -5140,   4287,   4930,   1531,   7673,   7126,  -3697,  -6794,  -4554,   -140,  -3461,  -4463,    -46,  -4353,  -4926,   2249,  -1548,   4300,   1705,  -4011,  -3538,  -3345,  -5030,   3270,   3249,   -667,  -5357,     97,   -320,   5587,   1682,  -4414,  -1899,   1849,   5463,    763,  -4306,  -2443,  -1487,   3914,   8436,  -3789,   2670,   1213,   3436,  -1314,   3637,  -4044,    469,   3973,  -2363,  -5947,   6880,  -1565,   1433,   2431,   2309,  -2384,  -1283,  -3636,   4919,   1065,   -950,  -2043,   2736,   3277,   2470,    144,  -3116,  -4731,  -5457,  -1459,  -4545,   1148,   5852,  -4985,  -6029,  -7659,  -2493,  -3432,   5696,  -3479,  -3918,  -5309,  -1124,  -2620,   3510,    415,  -1127,  -7040,   1465,  -5841,  -2299,   2920,   3330,   4045,    -74,  -6179,  -3967,  -2517,  -2125,    107,  -3394,  -1589,   1987,   -683,  -5075,    686,   2951,    921,  -4726,  -2227,  -3069,   1896,   3899,   1386,  -5807,  -5709,    745,  -1519,    154,  -2497,  -7096,  -1539,   3595,   2767,   2453,   -324,   2305,  -4238,   3267,  -4791,   2113,   1477,   2171,  -2948,  -6722,    106,  -1612,  -3790,  -3253,   5163,  -1488,  -3638,  -1886,   1458,   2952,  -3499,  -4612,   6915,   2853,  -4441,   7635,   -506,   2498,    102,   4692,   1301,  -5792,  -2332,  -4011,  -3899,  -3479,   4496,   1133,   -177,   -830,  -3650,   1705,  -3329,    446,   1442,   -985,   4377,   8434,   -276,    327,   3720,    991,    357,  -3961,   6454,   2583,    305,   3441,  -1426,    595,   4060,    361,   3849,   4940,   9637,   -366,   2068,  -2592,   6433,    182,   1885,   3413,  -2925,   -138,   3565,  -3306,   5644,  -4016,   2223,    607,   -948,   6582,  -4372,  -3608,  -4455,
          3578,  -4227,   2441,   3422,   1506,   2440,   1639,  -6009,    941,  -6100,  -2002,   1740,  -1090,  -7845,   2356,  -5398,    541,  -3535,  -5663,  -6750,  -2889,  -6939,   -278,  -4920,  -1013,   4801,   4322,  -1596,  -1648,   4214,  -3149,  -6471,    451,   -955,   1130,  -5195,   -545,  -1193,  -4747,  -1242,   3918,  -4801,    -94,   2304,  -2049,   1084,  -4227,  -3715,  -4401,   5778,   3790,  -5080,   1904,   -803,   -955,   1332,    -89,  -4661,  -4709,     45,   7637,    220,    290,  -1572,  -8418,   2058,  -5910,   -650,  -4184,   3554,   6007,   3076,  -8007,  -2719,   3485,   3577,   3657,  -4408,   4193,  -2345,  -3194,  -1370,  -7354,    172,  -4809,   9668,  -5447,   4303,  -3319,   3223,   6439,  -4737,   2714,  -1223,   1416,   -839,  -1130,  -4697,  -2448,   2457,   -170,   4547,   -132,  -3750,   -249,   1361,  -3333,   3046,  -5441,  -1887,  -1495,  -1283,   6515,   5700,   5894,   4828,    -82,   4968,    264,  -4575,    173,  -3381,   4602,   5790,   6814,   6076,  -2869,   5069,   6960,  -1761,   -903,  -2227,   6364,  -6442,  -4585,   2018,   1470,   1116,    587,    103,   3779,    454,  -6741,  -1746,  -2329,  -4991,  -3756,  -7904,  -4472,   -128,  -6450,  -3291,  -5093,  -6877,  -6060,  -6703,  -8669,  -1129,  -4730,  -5077,   1839,   4167,   5889,   5556,   2300,  -3173,   5554,  -3095,   -917,   3590,    -27,   1746,  -1216,  -4411,  -1726,   3725,   2705,   1421,  -1386,  -8177,   4408,   2689,   -689,  -6641,   4184,   4897,   6275,  -6201,   4947,   1344,  -4959,     18,  -8433,    -17,   1236,  -6132,  -3037,  -1916,   3416,  -4331,   7267,  -1488,   1467,   8782,   3784,   2118,   2659,   5019,  -7286,  -2179,  -3899,  -2450,    688,    497,   2892,   5485,  -5711,  -1892,   4240,   5102,  -5277,   4610,  -1240,  -5118,   5046,   8442,  -5456,  -7114,  -3548,  -1951,  -1748,    796,  -5741,  -3284,  -4829,   1726,  -4906,  -3971,   -709,   4928,  -1951,  -5737,  -2660,   7592,  -6182,   1693,   4647,   1761,  -1611,   3436,  -1244,    811,   1165,  -6174,   2178,    389,   6619,  -4199,   2102,   -959,  -3293,    772,  -3619,   2509,   2957,   2162,   2049,    970,   4419,   -693,   5774,  -5900,    880,  -1990,   1329,   7870,   -102,  -1209,   5940,  -3670,   3707,  -4702,  -2502,  -5091,  -5213,   2081,   3339,    581,   -367,    506,     60,   4796,    407,    -90,  -1984,  -3356,   6237,    385,   3304,  -4695,   3759,  -2560,   4681,  -4830,  -7718,  -2806,   3467,  -4512,   3497,   3586,   -854,   3250, -12313,  -6532,   2704,  -6438,  -5471,   5408,    658,    509,   2764,  -2753,  -1910,  -8585,   5746,   6387,  -4496,  -2717,  -3632,   3628,  -3557,   3833,  -2202,  -4892,   -830,   -643,   5439,   2074,   1239,  -1092,      5,  -4315,  -3253,   2167,   2053,  -3111,    178,   3730,   -341,  -2668,   5723,   5671,   1148,   2642,   7812,   8174,  -4710,    442,   -388,   6253,  -1728,  -7141,   1352,   9463,  -3778,  -1459,   4857,  -6901,  -4477,  -3605,    995,  -2566,  -1848,  -1590,  -3165,  -2256,   -797,  -1572,   1132,   1503,    249,  -1986,    860,   1736,   5410,  -4497,  -3281,  -3797,   -904,  -3440,   1264,  -4016,   4114,   -338,   1798,   3100,  -6913,  -6003,  -5521,   4931,   7664,  -1750,  -4475,   3514,   2704,   5429,    666,   3236,   3670,   4179,  -3920,   9171,   2774,  -2433,   4621,   2789,   4355,   3526,   2676,   1160,   2119,  -5028,  -2535,  -4755,   5138,   4700,   3558,  -4880,  -5441,   1073,   6067,  -1786,  -1934,  -5770,   4444,  -4945,  -1129,  -2677,   -403,  -2545,  10254,  -2961,   1504,   1068,  -4923,   -664,   3108,   -256,   5195,  -2072,   4426,    113,   3462,  -6809,   4929,   4028, -11163,  -4247,   5242,   1396,   5392,    723,  -2182,    866,  -6052,   2357,   6346,  -7516,   4506,   6881,  -1593,  -3867,   1658,  -2094,  -1801,  -6382,    165,   1902,  -4170,  -6030,  -2730,   3926,   3762,   2665,  -1431,  -3303,  -3695,  -1103,   1687,   3228,  -2834,   1244,    825,  -2463,   3273,    110,   5483,   -149,  -5274,   9697,  -2022,   4724,  -2431,  -3349,  -6038,   3282,   -324,   3413,  -2367,  -3296,  -3221,  -7093,
